id,lat,lon,emb_0,emb_1,emb_2,emb_3,emb_4,emb_5,emb_6,emb_7,emb_8,emb_9,emb_10,emb_11,emb_12,emb_13,emb_14,emb_15,emb_16,emb_17,emb_18,emb_19,emb_20,emb_21,emb_22,emb_23,emb_24,emb_25,emb_26,emb_27,emb_28,emb_29,emb_30,emb_31,emb_32,emb_33,emb_34,emb_35,emb_36,emb_37,emb_38,emb_39,emb_40,emb_41,emb_42,emb_43,emb_44,emb_45,emb_46,emb_47,emb_48,emb_49,emb_50,emb_51,emb_52,emb_53,emb_54,emb_55,emb_56,emb_57,emb_58,emb_59,emb_60,emb_61,emb_62,emb_63,emb_64,emb_65,emb_66,emb_67,emb_68,emb_69,emb_70,emb_71,emb_72,emb_73,emb_74,emb_75,emb_76,emb_77,emb_78,emb_79,emb_80,emb_81,emb_82,emb_83,emb_84,emb_85,emb_86,emb_87,emb_88,emb_89,emb_90,emb_91,emb_92,emb_93,emb_94,emb_95,emb_96,emb_97,emb_98,emb_99,emb_100,emb_101,emb_102,emb_103,emb_104,emb_105,emb_106,emb_107,emb_108,emb_109,emb_110,emb_111,emb_112,emb_113,emb_114,emb_115,emb_116,emb_117,emb_118,emb_119,emb_120,emb_121,emb_122,emb_123,emb_124,emb_125,emb_126,emb_127
0cbd4d60-0dc9-4373-b7ce-eba6c6f0481f,39.124653841995496,53.72338732619107,0.09624249,0.99913764,-1.6346765,-0.8865089,-1.0463762,-0.60444534,1.5356455,0.42688987,1.2972089,-0.41688505,0.08482876,0.21526562,1.4626135,0.116197415,1.5409995,0.06975508,0.9074308,-0.24521945,0.16096663,-0.28309283,-1.1650984,-0.017426137,0.10111314,0.063194536,1.4318749,-0.20704465,0.89921004,-0.7379578,1.1200229,0.9412548,0.035209298,0.48502335,-0.17468551,0.5955115,-0.23988043,0.31670427,1.1273907,1.0514913,-0.13844876,0.83382946,1.5537776,0.386569,-1.1212128,0.9509004,1.347502,-0.054452647,-0.52108043,-0.5703448,-0.49585223,0.26113766,-0.49868336,3.2390635,0.7040535,1.4455115,0.19958413,-0.09387144,-0.9367271,-0.0517358,0.3297621,-0.5250808,-0.13377921,-0.099058665,0.2204987,-2.867302,0.57772464,-0.92450345,1.0075984,0.80867255,-1.0706217,-0.31999856,-1.251926,-1.1273818,1.4597622,0.04078004,-0.040180825,0.9921451,1.3258066,-0.45114896,0.113784544,-0.5044156,2.33867,1.7510653,-1.0782686,2.101868,1.4260151,0.16474208,1.2720685,-0.43793643,-1.0091939,0.29787344,-2.2486587,1.1437697,-0.06114487,-0.74636203,0.53672945,1.1700946,1.2459141,-0.7390355,-0.7283126,1.0035354,0.71565807,-0.19999103,0.3955091,-0.7466653,-1.0304965,-0.65816593,1.1411837,0.3347745,1.348916,1.9716607,-0.9005824,-0.6300407,-1.2172098,-0.35233185,0.17269658,0.6683662,-1.3564519,-0.2516468,-2.5668583,-0.83383286,0.5077386,-0.38818008,0.098222904,0.26790592,-0.39628863,-0.6575704,1.5711958,0.8942715
26d70aff-a9fb-469c-95d0-6765f86ebeb7,-19.912504421489928,145.62695629537444,0.09056039,-1.1809714,0.67492247,-2.4399734,0.111034915,0.36995006,-1.1113936,-0.7122425,-0.51883525,0.6893111,0.23129822,1.7222195,-2.0640388,-0.20332663,1.3682204,0.5845888,-0.5825257,0.021464426,0.31812695,1.2737657,-0.5199663,0.3585776,0.5229811,-1.7818581,-1.8010654,-0.943133,2.5231004,0.46795136,0.32768765,0.32978365,0.44112125,1.3777606,-1.0032407,0.2278387,0.012753096,-1.1680248,0.09414815,0.08383409,0.8556403,1.107135,0.13035618,1.5386677,-0.27041015,0.8116419,0.49063674,-0.512183,0.39328125,-1.4960107,-0.91415435,-0.3977682,0.45436132,-0.8532969,-2.0502326,-2.2745278,0.08640663,-0.7364503,1.0111672,0.5597353,0.18605135,-0.77981263,-0.43714136,-1.1969756,0.5078464,-1.1217346,1.036583,0.34421712,-0.5169695,1.8530552,-0.07489384,-0.15972838,0.1639234,0.5148279,1.1600348,0.011189078,0.37469783,-0.24045093,0.015912961,0.29423368,2.0561018,0.42230368,-0.5005254,-1.0832161,-1.3030759,0.16536002,-0.62317485,-0.89423454,-1.1717833,-0.26993653,-0.6550906,0.3542689,0.8787956,1.149502,0.5265246,0.5315431,0.043027427,0.24752414,0.23475191,1.3305448,0.40098557,-2.070096,-2.0981607,-1.3199129,1.0759279,-0.3374552,1.3406723,0.15220286,0.46734917,0.2985943,1.0082849,0.68426794,0.13906462,-0.74694514,-0.4116777,-2.5051894,-1.1600795,0.4308454,0.5214881,1.7195785,0.18446855,-1.2001522,-1.0429217,-2.1613297,0.34650943,2.222701,-0.28816906,-0.62465936,-1.4583203,-0.730257
8b118e92-07e3-4191-bf0c-78208c5b6242,-83.10128824264623,68.87277837016376,0.3576075,-1.7195443,-0.025989687,-0.338225,2.5538666,-0.73934764,1.3743986,-1.0725216,2.7099392,-0.840853,1.3242413,1.7132683,0.035716765,-1.108122,-0.4085879,0.394231,1.4597372,-2.1298711,0.56821555,-0.53759503,-0.107343294,0.43550497,1.0540985,-0.48840395,0.85973346,-0.12279796,0.74774057,-0.6472761,-2.1389265,-1.1086777,0.7065724,0.6055672,0.5410523,2.2083223,-2.0190754,-0.79122996,-0.47665823,-1.0698916,0.34855917,-0.6912775,-1.2450659,0.10037347,-1.5487849,0.98299193,2.1177683,-2.7466316,1.127942,1.6412499,0.4284178,-0.28445017,0.004508944,-0.29025963,-0.21129028,-1.2117434,0.29952216,0.45361683,-0.6042993,0.43098894,-0.19632031,-0.03286191,-0.63146067,-2.8619618,1.0239689,0.69540286,-0.27042174,0.24426389,1.2865592,1.2750127,1.8519889,-1.7863066,0.28918332,-0.83968604,-1.2964865,-1.211275,0.6967961,0.008258963,1.6078407,0.6937775,0.17535177,-0.43780893,0.44712225,-0.17325197,-0.68933344,-0.53440034,-0.079275765,-0.17137004,0.34777516,0.6117573,-0.30714083,-0.019217521,0.4321645,-0.20074233,-2.5020838,-0.04170937,0.91247237,-0.0077994345,-0.29427716,-0.23262243,-0.78745323,-0.46555972,2.20108,0.7719312,-0.040715024,0.6536427,0.7610522,0.87236154,-0.71651506,-0.36169943,0.14732555,-1.1264963,0.3130671,-0.6801852,0.15236896,-1.484295,-1.7911634,0.81760526,-1.8093151,0.1461583,0.36965597,-1.8440474,-0.57528853,1.0484396,-1.0976778,-0.62924284,-1.6356137,0.7013048,0.5058821,0.36185846
dd26ba07-ab54-456d-9348-20d045b6eccb,23.34403600487562,175.8725635056174,0.97688985,0.1580281,-0.016436959,1.7765678,0.9683597,-0.086766146,0.030877661,-1.2967355,0.863449,-0.9097578,-0.21509679,0.88639843,-0.073823154,-0.17925918,0.17042504,0.16497654,-0.5281826,0.51444966,0.00500765,1.0615658,0.08550885,1.4649267,1.3494978,-0.044219952,-0.6378659,0.053100172,1.558753,-1.0908434,-0.5699954,0.58925337,-0.072759934,-0.9601437,0.980424,0.03095322,-2.0995476,0.26896772,-0.2680482,0.0020191427,-0.42155153,0.29831246,-1.2444347,1.0530124,0.2021941,-2.0927842,0.264753,0.07651961,-0.09482128,3.392414,1.4320928,0.6214316,0.63225126,0.4627672,0.2264695,0.83878165,0.025772793,-1.6011927,-0.35633406,-1.279321,-0.011008166,2.2635746,1.6184723,-0.74128234,0.9703113,-0.6314219,-0.45607698,2.0628934,0.24274574,-1.2292529,-1.4590352,0.50564003,0.21175583,1.0699015,0.5937711,0.536534,-0.7309665,-0.67451435,-0.9386397,-1.7647684,1.2245682,0.5672008,0.84615445,0.3202961,-0.8101979,0.42251784,2.053851,0.82838964,-1.636463,0.1557473,0.06214786,0.47103927,-1.9746592,-1.5151901,0.7132227,1.4194286,-2.5093825,0.68487066,-0.14123452,0.11499588,-0.28986084,0.450946,-0.2682653,-1.7738063,-0.89845645,0.27239606,-0.7369487,-0.32359758,0.7492094,0.30833277,0.21886416,-1.0318586,-1.5118028,0.41501084,-0.2030526,0.21649611,2.1224046,-0.10069015,0.34170085,0.4050688,-0.5200564,1.1281841,-0.12697446,0.3912438,-0.11666386,1.1083126,0.27550197,1.2598351,1.0853903,-0.52093875
3b45eeb6-8f1e-442d-a86b-63c48fae61c9,60.585343069289735,6.3478473090008265,-0.6599454,0.844609,-1.0942949,0.2586222,0.38856176,-0.63797283,-0.554719,0.36663336,-0.00828938,1.3504493,-0.36095437,0.99412465,0.9032618,-0.7671393,-0.9827319,0.8359966,-0.175975,0.6253619,-1.2768283,0.5889656,-0.03472258,0.56192255,0.046712104,-0.83913785,1.677123,-0.44789785,-1.5358341,-1.0493581,-0.83123,-0.61339235,-0.67891794,-0.4574127,-1.1557796,-0.96301347,1.0090839,0.15553638,-0.038203686,1.1637731,-0.06143411,1.2094417,-0.3310674,1.1238021,-1.6270653,0.27197433,-0.5420664,1.0715874,0.18069136,-0.1020009,2.8897097,0.038195837,-0.79821587,0.44493565,2.0073416,-1.466851,0.013999567,0.7400065,1.276539,-0.8895195,-0.4339704,1.5640603,-0.5713483,-0.26435676,0.8457672,1.2772394,0.57104695,1.2283306,-0.09360859,2.70104,0.89517343,0.72817755,0.98998004,0.60261613,-0.8001979,-1.5102631,0.02383214,-0.25232145,-0.9794906,-1.9908997,1.6945624,-1.1637534,1.6101153,-0.54643726,-0.64141077,1.7895179,1.6854506,0.867154,1.7705996,-2.006319,-0.67397064,0.08772968,-0.38174114,-0.18840823,1.6199241,-0.9729482,-0.9915918,-1.7830011,-1.6067524,2.9087827,-1.4412261,-0.17979774,-1.3120595,-1.0873549,1.0021478,-1.6951025,0.5084451,1.7373366,0.3115287,1.0348005,0.21668664,1.68443,-0.46133265,-0.15778409,-0.07936445,0.5013106,-0.4792191,-2.4258862,-0.4379942,2.481778,-0.57812756,-0.5307458,2.4635909,1.0098052,0.49866253,-0.4226321,-1.8848267,0.79847604,-0.17549857,-0.8119038
326e4bdc-0f97-43e5-b893-034c9ffc14c5,27.197648987157976,97.83061438245187,1.1245434,0.8370526,2.248677,0.61638093,-0.33552912,-0.7213688,0.019046536,-0.3100173,2.095197,0.7543951,-0.17704825,-0.86469877,-0.9265237,-1.003023,-0.65129745,-0.69640565,0.73717153,-1.5547849,0.89295924,-0.5869835,1.9235035,-2.3779716,0.08466174,0.1459291,-0.39707592,0.7037347,-0.39717588,-0.31967384,0.7435805,-1.7088375,-0.5915861,0.49140564,0.1458303,-1.0880551,-1.670711,-1.5792344,0.5408752,0.2903879,-0.67023903,0.48301703,-1.7604777,-0.2199281,1.7858025,0.66124946,-0.08019771,1.576598,0.52455604,1.3130504,0.9317126,-0.21183757,-1.342966,-0.4256853,-0.87544084,1.9728256,-0.32941556,-0.33752045,-0.33159983,0.19438708,-0.79083693,0.6894476,-0.7133882,-1.1107099,-0.79049826,-0.50073373,1.9471935,0.11820533,-1.3370932,0.63287365,-0.6832026,0.22180505,-0.295375,-0.48486134,-0.38420525,-0.93658066,1.0219176,0.12822352,0.7747387,-0.22478342,-0.6416355,-0.9839175,1.1528845,1.0717735,-0.6637152,-0.55683523,1.1752142,0.9367368,-0.14974427,0.60364145,-0.70116645,-2.3335476,-0.58644706,0.38761094,-0.35932237,-0.50204545,-0.7613403,0.68796414,1.2771336,0.83706325,-1.0715765,0.45749962,0.9499276,-1.347473,-0.0984927,1.4914522,1.813084,0.60080653,-1.19168,0.070587166,1.7660255,0.077011056,-0.027284637,2.1357715,-0.069220625,-1.5588977,0.8175287,-0.5591795,-0.57226425,-0.40139166,-0.90942055,-2.00995,0.9722339,0.63819784,0.31958044,-1.4777335,-0.44985852,0.21736614,-1.7037047,0.80275106
b416acfc-6ed3-448a-9dde-3721c1001788,9.194366674150388,90.21224127415667,0.4221576,0.17544396,-1.1691185,0.073663354,-1.105228,-1.0560354,0.84066546,-1.0191252,2.6631675,-0.07677872,-0.4191921,-0.7941605,-1.475753,1.0676161,1.3030165,1.4780935,0.14081714,-2.0537987,-1.2610476,-1.5387638,0.87903184,2.088917,0.116613686,-0.874987,1.4080414,0.07965892,1.1025386,-0.093694076,1.2108718,-0.96860677,0.8825071,-0.079520635,2.107322,0.06767936,0.020273682,-0.45744783,0.17345753,0.9718759,-0.68372595,0.4595993,1.0818568,-0.08128373,0.51319546,-0.69838667,-0.022419063,-0.16389135,1.3803686,-1.0523314,-0.39716214,2.2868814,0.14988838,0.44208065,-2.167546,1.7716353,-0.11307862,0.6425999,-1.5321498,0.75373554,1.27765,-0.16855699,-0.4093828,-1.3069837,-0.32897475,1.2924052,-1.5733224,-1.0196624,0.8229702,-0.12182734,-0.024483606,0.044788387,-0.20447122,0.12242485,0.35667488,-0.6866198,1.2742585,-0.7442704,0.12967807,0.5901767,-0.23848194,-0.586041,-0.69070375,1.4030862,-1.1957392,0.29055738,-0.65284413,-0.54921603,0.44550502,-0.27064487,1.7018137,0.37656945,0.86439043,0.90980136,-0.26967517,0.2828,0.69672686,-0.47455478,1.044641,-1.3134317,-0.20700192,0.7374509,0.500491,-1.6534922,1.7460374,0.0010435234,-0.5815679,0.37396955,-0.8339263,-0.05671072,-1.4604889,0.5940409,-0.34770074,0.10906414,-0.7642074,-0.8281655,0.8595039,-0.13176754,0.91398877,-0.961445,-1.2677995,0.022200935,0.86194813,-0.2238659,0.23792364,0.19958124,1.3048815,-0.7547795,0.5971345,-0.6967217
63032e7d-6728-45fb-ad1b-e823cb177d39,76.29714530801996,178.40294922615948,0.66076595,-0.6717527,0.22585377,-0.26832953,-0.13871579,-0.30116996,-0.6073372,0.8528429,2.0074985,0.13695215,0.54058105,0.06855871,1.536318,0.65059894,1.4098243,-0.32529742,-1.0618736,0.9945259,1.4633877,0.9736289,1.2043649,-0.5816055,-1.8479303,-1.4664563,-0.9842486,0.6603421,0.38090137,-1.5977097,-2.3668067,0.07571181,-0.507738,0.083302975,1.0253187,1.8862493,1.456807,-0.30747083,-1.6494368,1.2566007,0.89882505,0.5425082,1.1174861,-0.23664418,0.74535686,0.30337772,0.1284771,-0.75172806,1.1972361,-0.37829554,-0.9065604,-0.21262647,0.002432972,-0.039711315,1.1316218,0.06554261,1.3605585,-1.209898,1.0768439,-1.0588503,-0.7355376,-0.81586194,1.6214823,-0.5997736,1.4941759,-0.6495214,-0.6092686,1.186722,-0.9779906,-0.7645658,0.6297254,-0.56562585,-1.1194737,1.4627848,1.3161184,1.6119465,1.2343009,-0.77447534,-0.3168467,-1.0064964,-0.109629,0.62376136,1.6763288,2.3507206,-1.3594451,-1.6160322,1.1316476,-0.7718989,2.0265718,1.2698022,0.9351451,-0.61288804,0.1229099,0.1328856,1.0890962,0.37346104,1.1843739,1.2853717,1.511513,-0.18018739,-0.3963133,-0.2725961,-0.071985975,0.3855126,-0.8329744,-0.6884932,-1.4201398,1.181624,0.090307765,-0.24369018,1.5402467,-0.12795587,-0.55458426,1.242095,0.7593606,-0.85161823,-0.2941871,-0.67183846,-0.42864308,-0.0017195053,-0.62369484,0.23369265,-1.1481429,-1.2575938,-0.37965882,-0.22541495,-0.37323472,0.2276125,-0.25473475,-0.3107724
43810177-07aa-4f55-baff-463b4014ce00,76.05325752762445,-81.99883210579476,-0.9244314,-0.31337065,1.2256277,-1.0871907,-0.17158538,-1.132281,-0.18991432,1.0868065,0.38636374,-0.989457,0.46755484,-0.015239641,1.2797155,-0.10907316,1.0726384,-0.6192711,0.22636585,-0.54115176,-0.6903584,-0.8603392,1.9419405,-0.9923537,0.97737306,-0.51392394,-2.2456858,-0.14577137,0.5078394,0.041892882,-0.08871781,1.4721678,0.99713564,0.5788822,1.6493995,0.53267753,-1.4850993,1.4880981,0.05042825,-0.44918177,0.21436176,-1.7654994,-0.85859925,-0.8253529,1.9294461,0.35440922,-0.9866333,-0.7842019,-1.0652672,-0.80165786,-1.6637732,-0.09006825,0.3345632,-0.696463,-0.34375897,0.025006961,-0.324519,-1.9286934,-0.5283194,1.9306668,-0.7358969,-1.6741906,1.1286728,1.1034887,-0.072530046,-0.5950144,-1.3538463,2.1727383,-0.5384024,-1.4951314,-0.115323514,-0.8059213,0.061522137,0.1393444,1.8018551,-0.008743337,0.13547327,0.7518365,-1.5261405,-0.5595444,1.2810909,0.7543612,1.0157443,-0.018077252,0.84440637,0.24420118,-0.11153678,1.8523228,1.0938203,0.59364325,0.4042448,1.335318,-1.0238587,-0.46715719,-1.776444,-0.30202225,0.5130614,-0.4468424,-2.8883057,-1.5433573,0.78394073,-0.14115925,1.284242,-1.2961712,0.19206154,-0.52052873,-0.095076464,-0.97508115,0.5905611,0.037429556,0.57980174,-0.62337285,-1.0463145,-0.24430977,1.1315701,-0.005563228,-0.6869346,0.51640546,-0.81968164,-0.6794662,-0.64180416,-1.0304539,1.2677631,-0.85317564,-1.0639809,1.2258089,0.44009393,0.918631,0.06767529,0.14350535
695888c6-e799-41e1-ad21-7b74d52d40ea,-15.940950642038743,-70.01257265021624,-0.62478036,-0.63543415,-0.8569483,0.33791956,-1.5467733,-0.18082282,0.25515988,0.03974942,-1.145064,-1.8095658,0.7270619,0.48525903,-0.84966147,-0.4369141,-0.1329833,-1.4353701,0.03272518,-0.57094926,-0.8383012,-0.18585329,-0.25800788,-1.3990188,0.32716185,0.22364928,0.024347095,-0.4705429,0.844359,-0.47574988,-0.31044582,-0.75674856,0.09781547,-0.011641089,-1.1445801,-0.51300055,0.69197065,-0.5841887,1.3280447,0.2867465,-1.4690436,-1.5584867,-0.8142007,1.6038326,0.122438766,-1.9100609,0.120135106,1.7050726,-1.4699018,-0.3256177,-0.28180504,0.3986522,-0.72951275,-1.3690578,0.276707,0.4003609,1.3506438,-2.50136,2.2731175,-0.67885816,0.17829163,0.22482677,-0.6262431,-1.0042717,0.63439995,-0.5910671,-0.24902025,-1.1691638,0.2954136,-1.4158463,0.77653307,-0.7225834,-0.7563266,-0.025575798,-0.3126735,1.8888066,1.2366726,1.0919662,2.0345895,1.5463442,0.27247313,-0.9232282,-1.1867939,-0.2589369,-0.9864324,-1.2998067,-0.097100765,0.9442554,-0.9948235,0.47433016,0.51598305,0.32080013,0.78945845,0.100984916,-1.908874,0.38217157,-2.7055273,0.18663612,0.99709547,0.49538463,-0.9615707,-2.3840551,-0.18821934,0.39769626,-0.1313505,-0.76606005,-0.6362762,-0.22317195,1.1390445,0.052787427,1.3980956,1.3827683,-1.3835442,1.2659347,0.27748662,1.541093,0.22280398,-1.3921807,-0.57994646,0.7794045,-0.10682118,0.05303863,-0.8724112,-1.8931241,-0.28683662,-1.2351445,0.8403712,-0.12204899,-0.767701,0.55984247
721f825a-8281-4ffd-b93b-9afb4b26b614,-27.919756205662118,14.958288640470244,-0.4542685,0.3228073,-2.180986,-1.6597192,-0.9342096,1.2199284,0.50887984,0.27853188,-0.25879493,1.766016,1.2326304,-0.24928547,0.28873172,-0.4693674,0.078583084,-0.060754415,-0.13717787,1.2122806,-1.8065451,-0.18136822,0.8827211,-0.36353397,0.94687825,-0.4133624,-1.5468504,-2.1320708,-0.5140973,-0.7757159,-1.6711034,-1.1582587,0.6377948,1.9071709,0.5304872,0.009921252,1.352962,-0.2563172,0.6239272,-1.3021704,0.09966654,0.9663061,-0.7530637,0.20119555,0.6249676,0.65288454,-0.66579187,-0.59467626,1.1225257,0.048472963,-1.2616557,-0.76601475,-0.20604514,0.27675778,1.1292776,-0.13786305,0.079320565,-0.34030598,0.32534778,0.421339,0.07976587,1.0124432,-0.08559745,1.0107116,1.9709287,-0.9469643,0.71189934,-0.42707524,-0.2267803,0.21275872,-0.39622417,0.32009596,-0.76688915,-0.510692,0.1463011,0.17905544,1.0410659,1.3600391,-1.5607044,1.8895873,-0.9919031,-0.5563327,-0.2911052,0.6605001,0.46800897,1.0451607,0.026008576,-0.5735375,1.1316333,-1.6071469,0.5180662,-0.72956204,1.1584277,-0.26666412,1.0745357,-0.61159146,0.42256546,-0.5370908,-0.82248974,0.45875376,0.6128106,-0.5791969,-0.6311104,0.055068195,-0.5415821,-0.92037946,-0.9697732,-0.6662159,0.8943154,0.95026475,-1.068388,-1.2361925,0.5971927,1.2485963,0.47009358,-0.6565478,0.25240088,-1.2347332,1.943984,0.452215,-0.7842978,1.4318057,0.4768645,-0.90859205,-0.79404694,0.28245917,1.0052754,-0.32322678,-0.7433955,-0.73971057
7471efc5-34b7-49a6-a5c7-52f341b26c3e,16.104828185109454,160.1543469513819,-0.25707456,1.4950737,-0.056812104,0.8405892,0.016027078,1.2502226,0.14209366,0.6597181,-2.1546893,-0.84156334,1.0694427,-0.86418694,-0.7809789,-0.22739795,0.22086503,0.030754214,0.12338438,0.8541179,-0.4056246,1.2501493,0.43533736,0.9434432,1.0178641,1.3782303,-0.48308513,0.26476517,2.2267146,-0.49335432,-0.64075494,-0.77292687,0.60362357,0.17186879,0.38451365,-0.058619063,0.42423734,0.85521597,0.26968852,-1.085386,0.12032434,-1.4128608,-1.7696747,-0.39909503,1.2480086,0.4747711,0.14318104,-1.1920059,-1.1319534,-0.4942124,-0.4004407,-1.547599,0.03504846,2.377309,0.01026397,-0.6785855,-0.8704495,-0.5326724,0.049903907,-2.3980176,0.894665,1.421948,1.3639321,0.11469287,-0.9448692,-0.22896844,-1.6263969,0.30799603,0.9684644,-0.4656979,0.16340943,0.14477687,-0.02488749,1.362604,1.0615463,1.9746418,-0.386283,-0.023133004,-1.1034142,-0.26726502,-0.6883619,-0.1437196,-1.6379128,0.8027599,1.1767737,0.6697653,0.10587814,0.50042504,0.3918159,-0.53820777,-0.43341494,1.6652763,-0.11812307,-0.66381145,0.36482683,0.45457312,-2.085532,-1.148506,-0.70389044,-0.24938446,1.1872,2.4974842,-0.5489904,-2.4660206,0.53352785,-0.64390886,0.43159232,-1.6779149,-1.49421,-0.8209319,0.43606234,1.0185205,0.49367192,0.17981288,-0.8268463,1.3976024,-0.4032624,-0.18001027,1.2264943,-0.837042,2.0030005,-1.0673538,-0.07868187,0.7298982,-0.1713507,-0.21727102,0.6472769,0.6019276,-0.3067506,-1.4376086
7d595f6b-f91c-444b-8d07-9fba7c7b041e,-83.04260234957924,-9.98652570918037,0.009318084,-1.2665782,-1.6992656,0.35701433,2.0073073,0.03415244,0.78034675,0.459308,-1.1394749,-0.042788874,0.2808074,2.4857352,-0.11230935,-0.38389292,0.22592229,1.5294739,0.71351624,-0.3319947,1.7898605,-0.72286373,0.013097313,-0.31101575,0.4290637,1.4333636,-1.7136859,1.3854166,-1.3994027,-1.4366213,-0.4504177,0.42899978,0.9947134,1.158505,0.85259104,2.1967037,-1.3707038,0.6444128,-0.16361113,0.19759697,0.20295851,-0.32110456,1.141232,0.7787334,-1.6608157,0.14362745,-0.47611615,0.35033122,0.19090766,-1.2365882,-0.47332907,-1.623433,2.9553952,0.31831852,0.70002735,0.4724272,0.08054038,-0.84804165,-2.176071,1.4816127,0.63837284,-0.9133436,0.14860079,0.4340237,0.18079509,0.06487912,-0.66303396,-0.1453465,-0.227048,1.8215599,0.12688933,0.33038074,0.093678884,1.6089808,-0.2799602,0.97186416,-0.25280353,-1.273408,0.48095003,0.21915929,-0.81232333,1.543272,-1.2353511,-0.5747864,0.99071217,-0.21825683,-0.7556385,1.323145,0.44388342,-0.036344726,-0.764923,1.2968394,0.100367695,-0.11612062,-2.1489358,-0.15826204,-0.13568668,0.5561127,0.9849405,-0.37842485,0.15153761,-0.31620803,-0.42590067,-0.07796675,-0.4808394,-0.84600705,0.5252819,1.8717685,-0.5426604,-0.042100772,0.8716971,0.6414123,-1.0190438,1.128652,-1.2505854,1.3933026,1.3903733,-0.64665157,-0.67284495,-1.1233156,0.04054824,-0.24078692,-0.052203774,-1.5696683,-0.20950797,-1.1861578,0.09354874,-0.46389687,1.467549,0.37436572
d86a237c-d9bd-406a-b95d-65149ac52494,-46.982241196469495,-14.511225816368636,1.6860881,-0.8584996,0.28829226,-0.828565,-1.605535,1.4471501,0.7494043,-0.024204044,-0.07298112,0.9388925,-0.11420125,-0.14382501,0.03403522,-1.1956888,1.3056169,0.13476205,1.1941985,-0.6376329,-0.048504297,-0.22867493,1.9795263,1.827845,0.9199574,0.9678819,0.55652237,1.1595887,-0.4198165,1.3720995,0.05774268,0.54513747,1.0441948,0.11578745,-0.10855698,-0.8527444,0.22048469,0.2690025,0.03652324,0.67131245,-1.0854456,-0.8868561,-0.9233416,-1.0120723,0.26917532,-0.07275684,0.21700327,-0.14973235,0.28105462,0.002540993,-0.07124422,0.16166592,-0.73946387,-0.066172406,-1.5216466,0.25928575,-2.2096024,-1.7382864,0.25111964,0.16745561,1.2490929,1.8653443,-1.9500315,-0.012855985,0.5415314,0.55570644,0.870481,-0.95223117,-0.053083092,0.31595936,-0.22871852,-1.02763,-1.4476298,-0.46267825,0.4249758,-0.96655864,-0.30935133,-0.87671906,-0.27229926,2.6774642,-1.0444261,-0.37262216,0.3929675,1.6136688,-0.09792286,1.7911053,-1.2735748,-0.0425126,-0.39403054,-1.1695511,0.10189556,0.5303814,0.45471394,1.0217679,-1.260897,0.15910497,-0.88521194,-1.2473217,-1.2792488,0.6223704,0.6206708,-0.018792544,-0.48218513,-0.23078021,-0.42936492,-0.8932347,-0.3047437,0.84340495,0.981505,1.5330449,-0.090933494,1.1491256,-1.3653212,-1.5062459,0.76546943,-0.31284428,0.39647323,-0.040146615,-0.12784256,1.2627716,-0.69746244,0.64926916,-0.7082657,-0.8231198,0.045113027,-0.35469213,1.0903729,0.95677763,-0.34623256,-0.37634924
5f07e4c0-13ca-484c-95d3-5af693cfe671,-49.41433743301219,-2.183190751878641,1.6073472,0.32507887,-0.29442498,0.17528464,0.9047176,0.25560835,1.0901643,-0.57164496,2.042679,1.5186889,0.74826187,-1.0585938,1.1352929,0.014243608,-0.53475183,0.035218,-0.7439271,-1.2783026,0.19402172,-0.08408342,-0.04820463,1.9799553,0.08724023,0.5307063,-0.08077155,0.30106506,-1.9956412,-0.23000008,-0.08492536,-0.7658565,1.0759939,2.0119636,-0.07965925,0.6602768,-1.6423239,-0.21773125,1.1215868,-1.546997,0.55597156,0.608491,-0.6804773,-1.3507485,-0.93444663,0.91848946,-0.11549932,0.28329298,0.26035184,0.80074334,0.5684334,-0.52062815,2.7474127,-1.9568273,1.5550348,-0.24673145,-1.5706192,-0.45720702,1.1969035,0.4857829,-0.11188059,0.53262925,1.1643847,-1.1531738,-0.19935767,1.2938468,-0.3465445,0.35566685,0.3114606,-0.047442615,-1.9456455,0.045063928,0.13851511,-0.57799584,-0.6505769,-1.4568236,0.046780426,-0.78959346,-0.3771177,0.73893917,-1.1031349,-2.3400354,0.0043463493,2.3299592,-0.80463374,1.2629516,-2.078701,-0.84950936,-1.4910393,0.38823363,-0.46009436,0.37052554,0.9134268,-0.7313458,0.24719806,2.533926,0.48711807,1.8632814,0.78165513,-0.013283104,-0.8049741,0.2343027,0.33506933,0.11291038,-0.72852576,0.29970518,0.04304642,1.3588344,-0.68634045,-0.23264737,-0.5804017,-0.42318615,-0.55678004,0.73053825,1.2355932,0.049992293,-1.7961615,-0.103240356,-1.2034527,1.595095,0.6215356,-0.34975663,0.33811232,0.55478245,0.76761425,1.1180383,-1.1843033,-0.19685091,1.0076641,0.0009682058
001fe129-d9e8-481a-b51d-2a853605813d,24.489501214498887,55.432156415142,1.4151126,0.593584,-0.6544355,0.5325507,-0.40314373,0.5098763,0.8915339,-1.0589617,0.6608661,-1.8701671,-0.6707217,-1.0644413,-0.022069085,-1.524553,-0.28771365,0.6517265,-0.44622865,0.0525839,-0.6234432,-1.3271894,-1.4171616,1.5300264,0.7314633,0.6028203,-0.17248334,-0.4532237,0.5718248,3.0060577,0.8847725,-0.6277967,-0.56849545,-0.13227351,-0.7675331,0.18379469,0.47745875,-0.9329382,0.35244426,-0.33049068,-0.2505727,1.6074085,-0.01822094,0.39323068,0.12429699,0.7566012,1.8173069,-0.19328927,-2.3646188,-0.88319856,-0.70342684,-0.4035251,0.11026774,2.2758775,-0.42569757,0.24534889,-0.04555154,-2.199112,-2.4181254,-0.01587454,-0.45555478,2.0608997,0.8457266,0.014265196,0.16330086,-0.23769303,-0.07217649,-0.4888115,1.4752243,0.71197814,-1.0588775,0.9270757,0.45099157,-1.1335065,1.1405607,-1.5475373,-1.0147371,-1.2680403,-1.175423,-1.3716242,0.23464715,-1.0402926,0.70478624,1.292223,1.1052607,-0.43300164,1.3984675,0.11163522,0.30863455,-1.561593,-0.767593,-0.19083218,-0.20762178,-0.81812733,0.01398094,1.3777491,-0.566306,-0.3544025,-0.8623806,1.0608087,-1.3922255,0.8236998,-0.800358,1.1047264,0.760927,-0.06807163,-0.42761904,-1.0527341,-0.2906235,0.57594615,1.3051503,0.07731069,-1.6427099,-0.99565583,2.298739,-0.30688107,-0.58631015,0.515051,0.9973214,-1.5412169,-0.12472219,1.1585462,1.4463376,-0.63846517,1.0540673,0.71089983,-0.035387583,0.46009144,1.0360904,-0.32007605
d876928f-4ced-498e-a89d-db4f5176ec21,3.9883902999622762,-64.34501172116316,-1.0060395,1.2561121,-0.08583821,-2.6871731,0.16044903,-0.07774088,1.6278182,-0.23708367,0.2745689,1.4009387,-1.1523527,0.16744421,-1.156334,-1.2058777,0.29463264,-0.041356545,-0.958474,0.7413759,-0.48560277,-0.109464265,2.0248516,0.7688114,0.36928487,1.0563008,0.102003515,-0.8022629,0.02009389,-0.49368322,0.40113848,-0.5516735,-0.42301178,-0.9404599,-1.4779758,-1.2237076,0.98638135,-2.203798,0.2823308,0.57083267,1.021574,-0.042555932,-0.30335012,-1.7605612,-1.3360974,0.12533848,-1.0758966,0.70029134,0.19616957,-0.52551425,-0.93226784,0.9873652,-1.4969256,1.7460316,-2.5698516,-0.66705287,1.8033543,0.41882646,-1.2161733,-0.2945199,0.44396177,1.2734644,1.8314244,-0.1802413,0.5507784,0.21479006,-1.4294659,0.18579178,0.55399925,-2.074302,-0.57332826,-0.95861006,-0.21180052,-0.70537615,-0.98179495,0.45126882,-1.4269824,1.1153079,1.9923617,1.1833384,0.6561464,0.56484145,-0.31216297,0.41894022,0.72092915,0.7091884,-1.2664316,-1.3104899,0.12214359,-0.35457462,-0.30487826,0.19966993,-0.70823705,0.5925482,-0.21526279,0.87084323,1.0264652,0.8880493,0.23613599,-0.6684699,0.015660884,-1.4632576,-0.19578922,-0.10346334,-0.08126688,-0.79537934,-0.5434405,0.021504844,1.916782,1.891557,0.15196325,0.7450566,-0.09664908,-0.20162015,1.2509145,-2.886577,1.0090014,0.62296784,0.5960837,1.0264432,-0.22934814,1.7810491,-0.37448102,-0.2953176,-0.55986583,-1.3096428,-0.53650415,0.18174878,-0.46126246,-1.3486376
357c7727-5d5b-4180-a78a-4e5a2a2b3b40,20.5905262984558,86.47080803555457,-0.6458277,-0.26079124,1.2163154,-1.9279834,-0.47076228,0.088214464,-0.53380275,-0.870854,-0.5413854,-0.6767089,0.3221382,-0.43209788,-0.4176486,-1.1473398,0.118830554,0.23642154,-0.2213762,0.6406631,-0.8427894,-1.5557647,-0.49759957,0.12911344,1.6509976,-1.1325729,-0.25458556,0.23842014,0.6086923,-0.97921664,0.1603602,0.98934644,1.7682651,-0.51329744,0.5732687,1.148967,-1.1091504,-0.760369,-0.32942158,1.0864121,-1.3972266,1.4327012,0.10561901,0.9717193,0.6992894,0.66928506,0.63164115,-0.07040969,-0.88759863,-0.5248862,0.7215571,-1.4468269,1.6482602,0.697509,0.29534578,1.2323341,-0.1037846,0.82183206,1.6813749,-1.3750899,0.63390577,0.08427523,0.24469236,-1.1233413,-0.17296006,0.56480235,0.95870256,0.9160155,0.12128182,-0.93103606,-0.68622845,-1.2375035,-0.6149219,-0.5506226,-0.5845393,2.1122732,-0.6062946,0.29348886,-0.008973554,2.0248265,-0.077110045,1.9396559,1.2609068,1.3491908,0.79881704,-0.27884376,1.2004871,0.23851138,0.5146694,0.17159726,0.5905612,0.43761507,-0.16781847,-0.022971433,-1.2634081,1.605145,-0.72751063,-0.59925145,-0.522367,-0.7581146,-0.57147175,0.7633371,-0.0879379,-0.1891994,-1.3345038,1.1325469,-0.6797864,-0.669358,-0.047772847,0.9163644,1.5167378,0.11374061,1.070628,-1.8219166,-1.0869526,0.16575256,-0.49725068,-0.6138189,-1.5897243,1.4851958,0.6064386,2.0876195,-1.6126745,-0.60775256,0.8472661,0.39259645,1.3618894,-0.26365876,0.75630987,0.43489027
756d3bf4-ba3b-40e9-aa46-32800ed9c730,-81.76396915432939,-87.55307597602966,-1.466,-0.63551444,-0.9534372,0.9692265,0.77064717,-0.16414267,-1.1983458,0.25883096,0.7946652,0.3832431,-0.7506301,-0.927174,2.1612911,-1.8008164,0.44494203,-1.3173382,-0.62991077,-2.9833965,-0.7151129,-0.5198807,-1.3785357,0.83957267,1.1601297,-0.016290996,0.3346456,-0.99834657,0.32180002,0.6275237,0.08157079,-1.3935142,2.5236275,-1.0560392,-2.0672364,-0.4240379,0.10044457,0.46805412,-0.25577962,-0.5923402,-0.23488466,0.31024638,-0.7436984,-1.117408,0.24017091,0.019873247,-0.6104997,-0.059074357,-0.41626656,-0.732701,1.4449016,0.8659136,0.031157874,-0.15418608,-0.088382185,-1.0223136,-1.1683006,0.17985626,1.2204669,-0.07339413,-0.27577558,0.7534859,-0.63221544,0.34542185,-0.6672101,0.5906837,-0.60671175,0.3011715,-1.0043919,0.97719157,0.5657034,-0.588796,1.1935261,-1.3078212,0.0046400167,-0.7155229,-0.4958039,1.6275736,0.47044513,-0.5723064,0.62064457,0.19945805,0.03357744,-0.19754627,0.9651805,1.6287322,-0.47243968,-0.5769842,0.5320077,-0.19302154,-2.1214907,-2.004177,-0.60272896,-0.6751497,-0.8372726,1.8256735,0.4852163,1.7745844,-1.8257927,-0.52434665,-0.3003694,-0.12960735,-1.4004575,1.0961381,0.66929805,-0.57552296,0.695547,-0.37624693,-0.34274572,0.3351922,-0.23245893,-1.5904437,0.67071736,-1.4372711,-1.9892545,1.6319872,-0.35443336,-0.44869846,1.4853455,-0.40412185,-1.4340104,0.74732906,-1.6856966,-0.72977066,1.8994222,-0.97004133,-0.63910455,-0.28429544,-0.5566272,0.044165444
f5094e1c-f832-455e-aed4-6f61eb8b1beb,-10.839295868187435,-161.7377062489672,-0.6529707,1.6991591,-0.75161517,-1.2924899,-0.02639935,0.77702373,-1.3594325,0.9790368,0.18804887,1.1642364,-1.4637525,-1.2468091,-0.6505918,-0.44791386,0.75656545,-1.2824848,0.13308302,1.337892,0.58255273,1.293407,-0.7005809,0.22757365,0.3033603,-1.0506333,0.7074406,-0.58842915,-0.31251493,-0.1980324,-0.48910376,-0.07750528,-0.1875657,0.38105604,0.5996658,0.2837124,0.9664271,1.4372228,-1.3688855,1.6630034,-0.29268003,0.056106746,-1.4012643,-1.0960258,0.09746149,-0.2505376,-0.5519374,0.30459192,-0.99891365,2.3360386,0.10219147,-0.14207429,1.3685825,-0.31192517,-1.2227324,0.938552,0.6416868,0.11562004,-1.0041884,1.2929717,-0.5235708,-0.52545047,0.3719747,-1.1699421,0.1155063,-0.97015697,-1.4271115,-0.5480086,-1.397374,-2.2625027,1.6964512,0.84615916,-0.27903283,0.0853928,1.269273,0.4652747,0.6700891,-0.22771485,1.1685902,-0.086736724,0.9367936,-0.74257827,-0.47350296,-0.0060012634,-0.49951813,0.033719353,0.42627293,0.18036918,0.5718617,0.58387893,0.6448234,-0.03947812,-0.9727889,0.19222753,0.015842063,-0.9341814,-0.89750546,0.7708469,-0.94639975,0.7755619,0.85056627,0.20350623,0.94711375,-0.19368759,-0.00092653197,-0.96881986,-1.4798478,0.83812433,0.11546029,0.07901665,1.2195168,-2.4683845,-0.74840283,-0.61733276,0.7834501,-0.14368382,0.17082083,0.91393185,-1.2846086,-0.13329272,-1.687145,-0.076054096,1.0925688,0.29765597,-0.32532597,1.2816731,-0.8210646,-0.6588011,0.8006134,-0.71419984
0b9825c7-5afd-4f2e-976c-232665ac28e0,-41.83902332550712,-144.53069866262177,0.6899855,0.18209946,1.6722115,-0.23787515,-1.7464364,-0.9366359,0.08070206,-0.045991752,-0.5640473,0.8417207,-0.07552762,1.8292382,-0.86323106,-0.14375648,-0.9982674,-2.2067275,0.10549862,-0.71913224,1.1625497,0.43992168,-0.16163348,-0.71002185,-0.50466776,-0.8338659,0.6163696,-1.0507758,-1.2602605,-0.30230236,-0.22862512,-0.2574716,-0.40767768,-1.4653988,-1.2200468,1.2017986,0.5439861,-0.6332783,-0.0019051409,-0.7948676,0.5350065,1.4930936,0.876615,-0.36171836,-0.7087702,-0.65262914,-0.5581164,-0.87605584,0.14131,-0.018580193,-0.27262568,0.4919681,-0.23271817,0.778206,-1.2672896,0.8395354,1.0522041,-0.82784384,-2.4347134,0.89830077,0.18747303,-1.4775809,0.19689448,-0.303664,0.6597384,1.1205657,0.00067964796,0.2563759,0.13953249,1.4189695,0.110907726,0.60492563,-0.11051164,0.20789011,0.023079094,-0.2986363,1.8283467,-0.51445407,1.5657456,-0.18494987,1.289663,0.7870776,0.6118586,1.011292,-1.2772721,0.6578473,0.63103724,-3.0931947,1.0982487,1.3625051,-0.7476581,-0.53022397,-0.794909,-1.0024931,0.7125806,-0.24937344,1.0401508,-1.2506846,0.12444626,-1.1732135,1.3929904,-0.78800714,2.1419144,-0.39710987,0.6930166,1.2913383,-1.5125482,-0.7445297,0.6544077,-1.7927969,0.6771494,-0.20553204,1.3954427,1.6023569,1.050199,-0.96872526,0.0956386,0.50554293,0.6772683,-0.34453556,0.7449974,0.12391581,-0.60180575,-0.25905612,0.816879,0.6104175,0.11524942,0.30575466,-0.46985775,0.30922422
30b8880f-8176-486e-afaf-6c78af8eb1c2,4.038961657314033,166.03900518703477,1.6528642,-0.43115804,-1.0639706,2.1236951,-1.2867643,-1.0013816,-2.0308766,2.0308068,1.1814339,1.5920899,1.0058641,-1.6251241,0.2459478,-1.129961,-1.4222255,-1.1449296,-1.2963642,0.107612975,0.8449255,0.3245351,1.663322,0.27010253,0.5282961,-0.46471092,2.3200252,0.4184248,1.024009,0.6311423,0.97984093,1.4244777,0.41754693,-0.581927,-0.04296561,0.33457312,0.26223812,-0.22795469,0.3013347,0.24821089,1.3040597,1.9048516,0.054225408,0.1515648,-1.4055815,0.43535468,0.009089562,0.9531061,0.20962866,0.256463,0.18790066,1.1955148,-1.5846335,-0.31831124,0.24510151,0.25981122,-0.14840014,-0.2285391,-0.6707606,-2.0542371,1.457182,-0.03640309,0.29638308,2.0288787,-0.07298165,0.32773244,-0.75908524,-0.82123435,-0.5880613,0.5313674,-1.706159,-0.922148,0.6956621,-0.5820092,1.3389938,-0.04343312,0.5209809,0.4647222,-1.3329799,-0.10312298,-0.70665395,-1.7517595,1.8729124,0.37421802,0.4581892,-0.15448545,-0.01226905,0.15281883,1.4451464,0.25279844,0.15991892,0.8185741,0.61591697,-1.8631485,2.218884,-1.3006197,-0.44529447,-1.306803,0.21972397,-0.59917533,0.02086519,0.02291804,0.9580166,-1.2141205,-1.2888205,-0.3630651,-0.11871044,-0.6323799,0.118637554,0.7089592,0.26860347,0.3678454,0.41506818,-0.04876453,-1.2050742,-1.0102136,-0.08924155,0.05702534,1.0255579,0.3160468,-0.61797965,1.766044,-1.2944486,-1.9463071,0.11323323,1.4302053,0.14607494,-0.37923726,0.11890293,-0.115415886
3009e84d-3679-4d5f-b5b0-9e3d1a42c7a1,-37.592661421156414,139.2466694303597,-0.96644944,1.2788606,-0.38419056,-0.66350174,-0.2699532,0.49525133,1.8509263,1.1944444,-0.11852019,0.3295274,-0.96692127,-0.6866776,1.0469886,0.20857516,1.0186079,0.3187077,-0.9823991,1.4914179,0.07369159,-0.521512,-0.39897886,0.58571047,0.6512373,-0.6594677,1.9196994,0.29921794,0.5578506,1.4408563,1.0529877,-0.5060425,0.0889453,0.10796744,0.16465105,0.7746597,-2.0798838,-0.51058364,-0.5175068,2.0069404,0.8885742,0.005822022,-0.88398623,-0.6189654,-0.5594964,0.43297762,-0.70190734,0.33444887,-0.73526496,-0.58808887,0.26626965,0.18965651,0.41872498,0.4556582,-1.4411908,-0.5209222,0.22886746,1.1559397,1.2805203,-0.67750293,1.3798641,0.39509857,-1.288421,-0.65067434,-1.3224851,1.5112582,-1.2751367,-1.0106287,1.1681527,1.249578,0.2564966,-1.8155754,0.64192355,0.46919382,0.56381327,0.09706108,1.7796712,0.32483405,1.5605742,0.050127074,-0.019838843,-0.618893,-0.12029407,0.7999844,-1.123817,-2.1320183,0.613106,0.51893455,0.34404412,0.53470296,0.4436536,-2.1766982,-0.2893787,0.7051645,1.908381,0.586213,-0.5836282,1.6731154,0.34428474,-1.7148759,0.70307547,-0.6362043,0.23420708,1.254013,-0.2215826,-1.0735415,1.0906411,1.0977019,-0.54350716,-0.22429097,-0.7927648,-0.76613677,-0.29559442,1.2012545,1.2925632,-0.92266047,-0.20378241,-0.8016392,-0.7371976,-0.84792185,1.5937594,2.6772115,0.05934677,-0.575202,1.6892297,-0.7744344,-0.27850637,0.8292627,0.6237981,-0.54710394
63de6d9f-8cff-4747-a5e3-7269bb399ea5,4.705659614287555,51.62941203667336,-1.9706577,0.9878671,0.06350949,-0.4409598,0.56314063,-0.85083807,0.4470877,0.6712194,0.31524864,0.20792624,2.0425358,-0.33615938,0.5180974,-1.110378,0.23089999,1.0995693,0.38597932,1.8721699,-0.39331925,0.40207848,-0.20960118,-0.91933006,0.35620543,-0.083522715,-1.0644095,-0.1958853,-0.2229844,-0.1813554,0.025711883,-0.39549953,0.28584325,-0.68342686,-0.5532012,-1.2668649,0.33437732,0.82472855,-1.305815,0.40771666,0.7519868,-1.3084849,0.72474504,-1.0032823,0.3887467,-1.3217463,0.704762,-0.9139921,0.61498296,0.12845547,0.09202304,1.5912834,1.0812877,-1.095764,-1.4410652,-1.8851335,-0.79077107,1.2931254,-0.12453553,-0.9368994,2.3191273,0.45661154,-0.7183526,1.58456,-0.3766062,0.010371461,-1.1563627,-1.867917,-0.43682614,-0.79243916,-0.8816607,-0.6920075,-0.2682152,-1.5306101,0.973485,-0.3084852,-0.008526136,1.3301759,0.30808583,-0.22531827,2.4964154,0.5902538,-0.6280658,0.84368855,0.30539376,-0.5155236,0.4839078,-2.30737,0.61721396,0.653731,0.4182413,-0.42222252,0.49935257,-0.41705132,-1.5466628,1.0427654,-0.1365452,-0.8402852,-1.437029,0.040709797,0.105217986,-0.3454233,-0.27953005,0.13420466,-1.0291041,1.1312667,-0.2992391,-0.06344003,1.0820096,-0.68277425,0.38119853,0.10471685,1.0015244,0.23741457,-0.19857447,-0.3621759,0.9438365,0.50091285,-1.5752214,0.14074227,-0.33207884,-0.68442005,0.6685166,0.874207,-1.1196543,-1.025383,-0.18552479,0.040568277,0.7050207,-0.4104345
4ef19c69-1bf9-493d-9e58-b2b257f2deb9,-23.295528171638622,116.35330523711087,0.71472514,-1.0000405,0.83843166,-0.16731477,0.9721779,-0.22020113,-1.6657668,-1.6399717,-0.9641295,-0.9514865,0.17709905,0.64146054,1.3592886,2.8131428,1.4476535,-1.3760641,0.37933618,0.0011549012,-0.88720673,1.086572,-0.9510962,-0.7871555,-0.7951315,-0.113236874,0.5796178,0.2705948,0.4426542,-0.7690181,-0.23126921,0.03826991,-1.580469,1.3006225,-0.74365896,-1.2019521,1.1824278,0.25321433,-0.706739,-1.2330916,-0.71837217,-0.4598307,-0.9514202,1.4958106,0.8268008,-0.55352867,-0.6688137,0.7225932,0.09738584,1.0051656,-0.07563243,-0.81351936,2.427082,0.67341655,-0.17688623,1.2275704,0.5538029,-0.63292384,0.8855579,0.11031939,-0.034256198,-0.60849893,-0.35427687,-0.5947345,-0.258393,-0.51854086,0.82127124,1.282716,-1.7853149,0.41543135,-1.2815577,-0.264272,0.17868018,0.78557545,-1.2989745,-0.79462206,-0.5345956,-0.9738914,2.3867855,0.14135909,0.6062514,0.77853346,-0.11940963,1.1348578,0.7568298,-0.36640608,-0.5158486,0.8508293,2.187213,0.20598999,-0.78509545,0.12452485,-1.7446678,1.2291399,0.52538514,-0.44158968,1.5082139,-0.4457996,-1.5109936,-0.17591141,-0.598497,-0.31550872,-0.11036375,-0.8158977,0.4523897,1.1959805,0.1563476,0.18719943,0.5596742,-1.7877098,0.6586336,-1.182214,0.55322707,-0.14382924,-0.6974124,-0.72601753,0.9309848,-0.9296451,0.076562695,-1.3133518,0.8517768,1.2383841,-0.065389484,-0.8137561,1.5042489,1.5402226,0.93644404,0.5234568,-0.48681232,-1.5016456
eae95c5d-43f5-456f-b6eb-2627715e8081,68.49067777302139,175.078134525586,0.36421785,-1.2067832,1.2853491,0.05194228,-1.085708,-0.44240358,-1.4650546,0.5553339,-1.8322675,-0.7553401,0.7464263,0.831405,0.15402932,1.8265222,-0.63785946,-0.553806,-0.57024497,0.61095005,-0.9361949,-0.88309276,-0.92190427,-1.498242,1.9364352,-0.32937217,-0.8010065,-0.6630042,-0.908127,-0.119250685,-0.8051342,1.1523902,-2.3998234,1.1989486,-0.22385153,2.8236277,-0.32357705,0.3205766,0.39744204,0.6185386,1.3305386,0.48070335,-0.5690434,1.7285286,-0.41485834,0.6944921,-0.48200414,0.021549745,-0.8141669,-0.4380286,-1.7642529,1.1182274,2.326014,0.48662028,-0.48983982,-1.9597406,-0.794234,-0.21251763,0.306361,-0.07142308,-0.34124917,-0.41992828,0.8494143,-0.26979855,0.64369804,2.1483226,-0.092780106,1.7755578,0.46759838,-0.822707,-0.4259523,0.013916607,1.3727119,0.62352633,1.6709756,0.48236218,-0.09051029,0.80368555,0.4095324,0.45179588,0.6081447,-1.6599228,0.14527725,-2.2866392,-1.5389196,1.2919283,1.9852132,1.5881358,0.67896825,-1.1900443,-0.4490192,0.5353119,-0.2613403,0.99268454,0.8784076,-0.31047004,0.12401661,-0.69776636,1.4305547,-0.0008616608,1.5117247,-1.0358815,0.41247672,-1.4431126,0.08691055,-1.3843117,-0.53333455,-0.30468422,0.26839748,0.85204303,-0.39478302,1.0609152,1.211593,-0.22996865,-0.38055092,0.14436953,-0.26099923,-1.0950555,0.6571287,1.3791127,-0.8324095,-0.65267074,-0.7116836,1.2961134,-0.48464188,-1.2418171,0.07058159,-1.4691347,0.4935071,1.2728753
3232c3c4-b45f-432f-bfc3-e4a788575c5e,-17.342884243965784,92.21444931677183,-1.0413399,-0.79742634,0.4815021,0.3464521,-0.457746,0.19162714,1.4076793,-0.051362183,1.8050575,-2.0410116,-1.214896,-0.46747246,0.15010199,-1.0559828,-0.7344761,0.6726958,1.108492,0.86976486,0.85981745,-0.6508055,0.9397751,0.17582077,0.73331594,-1.3264945,-0.07879291,2.5409489,-0.5351621,0.442352,0.113716505,0.23750708,0.48445472,1.5369982,0.11671641,0.22757103,-0.9121526,-0.75682807,1.2110752,0.20109616,-0.5711375,1.5122973,-0.688034,1.2147638,1.0218471,-0.3841916,1.1269417,-0.539291,1.4043067,-1.4450092,-0.2785305,0.66985,0.32676467,1.2722213,-1.3477279,0.3794098,0.06252462,2.641908,-0.6097528,-2.3423529,1.9942954,0.6976542,0.95899385,-0.023267379,-0.053599548,1.569568,-0.84492993,0.8926058,-1.5300245,0.10062261,0.51082873,-2.1065156,1.3539157,0.66818357,-0.22260484,0.17556985,0.76338136,-0.72012556,0.93010193,1.8139757,1.1047379,1.8965073,0.6505211,-0.0332274,-0.24596474,-0.43910605,0.82745934,-1.6706407,-0.46689558,-1.6822163,-0.56679785,0.8759175,0.14633356,0.22032851,0.05364138,-0.48129296,-0.09062931,-0.2402604,-0.34529048,1.225203,0.25519526,0.65223193,-1.5118972,0.5707085,-1.220651,-0.032555617,-0.0015314185,-0.6174483,-1.395555,3.1439543,0.7673313,-0.56754106,-0.57878876,-1.018196,0.54963493,0.59136206,1.0160518,-0.40675887,0.47471508,0.00056672003,1.9216238,-1.7913646,-0.053335145,0.49590963,0.69054574,-0.3921521,1.5474771,-1.4778723,0.76682055,-0.54614836
d7d55102-5fd2-4052-bc69-8be9f4e66f5c,-4.914279523183524,-72.55711059987146,-0.028818714,-0.36109027,-0.21615164,1.6656874,1.5881318,0.39289513,0.6065592,-0.77415013,-0.28953904,-0.024142195,0.1477651,-1.7029774,0.54890466,0.29037684,-0.4550535,-0.7792758,0.22716269,-1.9619839,0.5423742,-1.3914591,-0.29366696,-1.8130827,-0.2835384,-0.9937394,-0.5769025,-0.88757217,1.842412,-0.28567883,-0.5990079,0.14227088,0.60399956,0.14777023,1.6406926,-2.2937028,0.5642923,0.10823501,0.04835105,-1.6891353,-0.777387,-1.4504793,0.1301732,0.748303,0.48265365,-0.06910958,0.6259661,-1.1482344,-1.0291109,-0.5412862,-0.08099732,1.0380975,-0.67198807,-0.6072847,0.25469792,0.63515913,0.7812665,0.6569793,-0.81962687,-0.11213764,-1.3506069,1.3133674,1.6112411,1.6357151,0.97981,0.46859378,-0.49103823,0.20090881,-0.2403007,0.19133258,0.25470605,-2.8075516,-1.0936074,0.4967056,-1.6719784,-2.3679621,0.9389938,-0.098093525,-0.017644987,1.5341918,-1.3465253,-0.42151573,0.8446544,1.6273873,0.25638208,0.51411295,0.46873146,-0.22414544,0.29867932,1.5888314,-1.1533957,-0.3944002,-0.7414035,1.3150914,-0.17886041,-0.8372406,1.0612456,-1.6753029,-0.63727325,-1.1364055,-0.5332898,-0.27761465,1.5273486,-1.7416795,0.9353469,-1.0761408,-0.17954075,-0.6767593,-1.3008982,0.69782096,-0.3442991,-1.33187,-0.03695375,-1.8224739,0.2386331,2.8651152,-0.6450577,-1.9080137,-2.020293,-0.21303727,1.536061,-0.35519883,0.03651572,-2.3326943,1.402129,0.73410726,-0.26408118,-1.0570599,-1.6524456,0.8663012
a6bfca34-e516-4062-89bd-4631ae7d53d7,-65.52645979091665,154.20428395991678,1.1961075,-0.1935234,-1.737696,-1.0550776,0.628304,-0.43541813,0.115451485,0.26349568,-0.95212305,2.1142085,0.4214652,-0.12416726,-2.0279589,-0.35237348,1.1069461,-0.93975526,-0.51454407,-1.4894643,0.557615,-0.839997,0.87320566,1.6850479,-0.14517027,1.0795584,-1.3435161,1.0755953,-0.9219153,-0.3169502,0.45661893,0.1394546,-0.07271677,-1.120262,-0.32335466,-0.55801654,0.9868123,-0.7715939,0.15919954,0.7561253,-0.5921964,-1.2052202,0.9136576,0.2954163,-1.7550615,-2.3249722,-1.3611802,-0.2953689,-0.6749124,2.213551,-0.24809012,0.6433228,0.046199895,1.4759237,-0.73332113,0.9929098,-0.7899215,0.13405824,0.15968539,-1.8373104,-0.50795555,0.19058059,0.4111816,0.7510161,1.6151046,0.4259187,1.7358875,-0.89513123,0.39977673,1.127586,0.5753164,0.86897147,0.1033586,-0.9773709,2.2476504,1.9743556,-0.63509125,-0.47290808,1.2306006,-0.6726067,-0.18223985,-2.047981,-0.30653566,0.0751063,0.089021005,-1.055253,-0.8167455,-0.94911915,1.0416349,-1.4081709,1.0774779,-1.1967427,-0.19730374,1.6154677,-0.00221564,-0.00036264307,-0.17862903,-0.2071507,-0.42170203,-0.8931407,-0.626353,-0.39364958,-0.7539044,0.5755126,1.6547076,-0.08131038,-0.65633917,-0.113179766,0.26262572,-1.0037528,1.2705481,0.8849814,-0.94517905,-0.5427025,0.66240036,-0.36778978,-1.8686479,0.08823381,-0.35505116,-1.23683,-0.8193808,-0.027048755,0.40940088,-0.50151134,-1.7680707,0.15353046,0.3010897,-1.189587,0.2568249,-0.2795814
46d46b8a-3079-4b08-9591-db8e974a0779,37.044444507410674,118.50679048963707,-0.028781455,0.20398964,1.4410574,-2.0269547,0.927562,-0.2612889,2.3225605,-0.042464796,1.1249701,0.23608938,-0.49379963,-0.16915005,0.7797079,-1.405645,0.6516275,0.6794094,1.1177099,-0.003806609,-0.5292623,-0.025734998,0.037477054,1.2826221,-0.54689294,-0.3532319,-1.4983072,0.14274257,0.6938236,0.3707344,-0.32797217,0.6432534,1.3457335,-0.52139825,0.879219,-1.2586285,0.7205541,0.64962155,-1.8441762,1.3883774,1.6043447,-1.0367438,1.1076027,-0.63629204,-1.1028085,0.4511341,0.29952887,-0.91576916,0.04026806,0.4248203,-0.43136597,2.6068318,-0.26338384,-0.42033502,0.5015929,0.7639662,1.2790056,0.09982532,-0.18763623,-0.24900118,2.0295377,-0.7120564,0.6999718,1.5451276,0.5321398,0.5870339,-0.72354823,0.32160723,0.64239085,1.6183376,-0.5305579,-0.17245439,-0.7915704,0.69633794,0.1902309,1.0410705,-0.5277416,0.6298581,-0.41834736,-0.8285906,1.6092356,-0.60735065,0.7379744,1.0641592,-0.7921985,0.28560883,-0.8469567,-1.237478,-0.058869578,1.7926178,-1.5765603,-0.6851244,0.6848496,-0.5044743,0.72857267,0.5706709,-0.22278145,1.4836793,-0.24754559,-0.5470101,-0.5650758,0.1405323,1.1759349,0.07429524,0.24882558,-1.0281627,0.1090459,0.89450663,-0.277528,0.028348535,0.649374,2.211519,0.3031886,-0.06260416,0.3513097,0.67395157,0.22675402,0.21247585,0.90367496,-0.21062298,-1.4832793,-0.35206512,0.72898406,-0.23267488,-0.32052895,0.07486984,-1.3198715,0.0050071785,0.124113664,-0.25972548
092267de-9de7-4eb4-91f0-e4f6d78f2378,-11.998845011783317,-106.55668293731605,0.5868121,1.4710745,-0.8170295,0.7078582,-0.44593614,-0.33046368,0.37422746,1.9906547,2.4636436,-0.41864896,1.120976,0.7003952,1.4239714,-0.89466506,1.0433993,0.84721965,0.5164666,0.8836524,0.039679315,-0.374991,0.94267637,1.8861573,0.5688621,1.7317369,0.45974255,-0.0631923,-0.076548435,-0.71257764,-0.20214365,-0.94076806,1.078895,-0.63736767,0.70240784,0.9055955,-0.25986254,-1.073381,2.1852036,0.47973135,0.5842136,0.89844507,1.8588738,-0.78454494,2.5895686,0.46794733,-0.70813197,-0.46067345,-0.9094506,0.8551897,-1.5236653,0.50570065,-2.0458317,-0.27102396,-0.47311738,0.96715593,-0.2025513,2.283987,-0.023363082,1.2349906,1.1682564,-0.32282272,-1.9028106,-0.98328704,0.101759985,0.29965425,0.30269182,3.1230836,-0.42800832,-0.986391,0.7772815,0.77418506,0.6831217,-0.24474266,0.5936634,0.95846945,0.28504854,0.21763231,-0.011495564,-0.6938631,0.07444644,-0.11318746,-0.7667581,0.6400593,-0.75240064,1.8462161,0.9677413,-0.28806627,-0.059961595,-0.7170838,-0.6970495,-0.35295972,0.30164355,1.0064096,-0.16401766,-0.6592634,0.44956747,0.4860703,-0.10879403,1.7594523,1.5315744,-1.1788622,0.50624055,0.37220222,-0.29540455,-0.02135864,-0.03368332,0.5694803,1.329544,0.092872836,-0.697643,0.49721417,0.09481108,1.2881889,-1.301903,-0.9937461,-1.082586,0.5334161,-1.2975799,1.6167482,-0.099197336,0.08736853,-0.34208924,1.2611905,-0.24781898,0.24945301,0.25121468,-0.4547649,-1.7805802,-0.14461032
431650f8-1611-49e8-bba1-ce088e8e6bb7,22.521955611362472,125.88529021083355,0.07590274,0.0069692507,-0.42275167,0.34708494,-0.7161384,-0.22640277,-1.8134799,-1.1692322,0.51839185,-0.52876526,-1.5255145,0.3671333,-0.0072819083,1.2873913,0.7779943,0.12438352,-0.077262215,0.79749304,-0.2643995,-0.4799547,-0.29582357,0.3740293,-0.3896076,1.3398284,0.5818134,0.8334562,0.19916336,-0.6759315,-0.087531805,-0.6191172,0.14018118,0.65093875,-0.23600388,0.091168806,0.65322304,1.4993074,0.6966195,1.775131,1.1835557,-1.3495649,-2.1769655,-0.8236336,-0.2684536,-1.0285729,-1.4255998,0.5696234,0.014690466,0.12047846,-0.7165839,-0.06896537,0.34811676,-0.4228772,0.44543797,0.80939806,0.65156376,-1.1198409,0.3289392,-0.56877553,-0.18764265,0.94638467,1.1742787,-1.1149312,-0.30847037,0.6281644,-0.72715336,0.09398807,-0.46219477,-1.3030173,0.31159747,-0.42310843,0.9094918,1.835329,-0.24519038,-2.2359767,-0.64421505,-0.76119006,0.19476458,1.4643611,-0.52623683,1.5711372,-0.36315712,0.6439726,-0.15570296,2.9711778,0.97955555,-1.3903841,-0.7006972,-0.8644003,0.13172866,-1.9110053,1.484696,1.0368168,1.0332379,-1.1348037,-0.55839694,1.7730881,-0.11115591,-0.9961928,-1.4968035,0.2532678,0.8432408,-1.4959165,1.6777635,-1.7144004,0.5648556,1.0164783,-0.11086662,0.16031387,-1.4806467,2.5632443,-4.0430474,-1.0644996,-0.86955804,-0.54277825,-0.28699532,0.06542297,-0.45725292,-1.1255867,-0.81842303,0.14300166,-1.3487327,-0.00832869,0.2663912,0.12150437,-1.3837626,0.4222201,-0.2232466,-0.004858684
64c38e82-fe6e-4f1f-8353-5291902e8949,-17.16718849790084,57.33309311595232,-1.4631946,1.0183877,-0.8677718,-0.5705608,0.2239255,-1.4785924,0.9176279,0.48176324,-0.4302548,1.495452,0.53117704,-1.0961971,-0.021024324,-0.10378613,1.5975703,2.0892298,0.46082944,-0.24106476,0.6972473,-0.46513715,-0.07885874,0.2707816,0.14511439,0.19351088,-1.6091326,-0.6282248,0.11308996,-0.1545265,0.7045249,2.476014,1.0610423,-1.6087078,0.0028377934,1.3373319,0.04924136,-1.3912103,1.1850705,0.8265018,-0.07300586,-0.37453073,1.2180467,-0.79058,-0.11723912,-0.6566153,-1.215941,0.5060803,-1.2812092,-0.53018177,-1.2800521,0.9811444,-1.1449882,1.1915954,0.5587616,-1.2158536,0.6597959,0.22506493,1.638858,0.6990833,0.03564855,-0.35891554,0.28322834,-0.7220983,0.5260874,-0.34265727,1.1612068,0.7825885,1.2627344,-1.0257952,1.7200527,-0.74549556,0.96512914,-1.6802542,1.193716,-0.35742378,-0.49201903,-1.8320435,1.3758423,1.3726339,0.87203836,0.9473317,-1.0794469,0.7109734,-0.012575133,0.3162461,-0.36319938,-1.6033045,-0.47954446,0.10818108,0.74076927,1.0208497,1.3858739,-2.1459458,0.8855598,-0.8942844,-0.30912092,-0.4285645,-1.7445301,0.5733684,1.6311438,0.24131913,-2.0072098,-0.57182586,1.7950556,0.49385047,0.32839465,-1.5696532,0.62977135,1.1484137,0.78384024,-1.0029874,-0.5098654,-0.42517912,0.26372096,-0.82888216,-1.6001498,0.41717163,0.44550258,-1.478349,-0.8883126,-0.034167394,1.3672364,0.30315524,-0.5392504,-0.63685024,0.87216485,0.7209319,-0.7866396,0.17763804
0df9dfa0-4fdb-4d5a-8105-1ac79c028bb9,14.235021210779877,-44.5311002225196,0.9035373,-0.28326872,0.52863556,0.2780519,0.5750369,-2.372568,0.32979128,-0.15084219,-0.341524,-2.5911832,0.46220508,-0.26940823,0.124274455,-0.2177251,0.68606544,-0.13278241,-1.6136194,-1.1214046,0.20680007,0.24297707,0.86141115,1.2327621,-0.3218081,-0.44356892,-0.3074097,-1.1301571,-0.21075453,-0.09760564,-2.2961705,0.97745883,1.2139401,-1.1292427,0.5611807,1.1304069,0.33249998,0.15868835,0.7985471,0.6443378,1.0778964,0.57551533,1.7394502,1.2209531,-0.5553718,0.32583922,-0.43003407,0.17167234,-1.0567822,-1.314082,-1.064799,-0.2914086,-0.3782471,-0.32457635,0.81173426,1.3663597,1.0681046,0.49887225,-0.39370325,-0.04959891,-0.4749278,0.42708048,1.3528556,-0.532526,0.57917035,0.88097024,-0.5789239,0.3391455,2.1141326,-1.2917837,0.16623777,1.5602957,-1.4016528,-1.055727,-0.54374236,1.1662741,0.6402383,-0.26698846,0.50029016,-0.46590745,-0.5009031,-0.0033977453,-1.3574088,1.2599403,0.62459385,0.11861078,-0.048168622,0.5908245,0.0699936,0.5733056,-0.36411533,-1.4986825,-0.5367448,1.0622067,0.9000991,0.5931206,0.46563137,-0.1488112,-0.834999,-0.5272426,1.4499071,0.22204684,-1.0977417,-0.047703333,-0.7252148,0.7229453,0.026283592,-0.95055044,-1.3879063,-1.686384,-0.6491817,-0.95931685,-0.5682327,1.6276108,1.091766,-0.027977152,0.81262344,0.70915616,0.21094316,-0.4110271,-0.565596,0.98851866,1.9192364,1.5696238,-0.525549,-0.38370836,-1.2835231,-1.0885801,-0.3278678,0.9398026
aa194959-74a3-4832-beae-53fa1331d4c1,32.99246253794469,54.8371781667509,-1.3009064,-0.22887942,-0.7750222,0.95221,-0.2242235,0.72758096,-0.32974163,-0.7586149,-1.2740505,1.3113955,-0.12468206,-0.4387303,2.0023081,-1.2723982,-1.9224044,-0.5678934,0.22865146,-0.25110027,1.2322588,-0.2871453,-1.20595,-1.0067056,0.11775399,0.28280836,0.6673025,-1.9340926,2.1556163,1.3929746,-1.5840315,-2.0868206,-0.3780891,-0.5263685,-1.9068563,1.0827032,0.26890796,-0.021791214,0.25060022,-0.24758829,-0.091295265,0.120817274,-0.69836754,-0.2024592,-0.56720734,0.5347966,-0.47152525,0.4302743,-0.44876224,0.6370501,-2.0558872,-0.5899392,0.80057657,-0.49526048,0.5036369,0.12100952,-1.5288469,0.7668196,-0.6644273,1.702573,0.59846663,1.0754455,-0.20855382,1.3804525,-0.06850839,-1.658593,-0.60598356,-0.8026415,0.54959834,-1.4155787,1.6162308,1.2864008,1.1092424,0.65523654,0.47153732,1.4444613,-0.3889323,-0.5540208,-0.040672198,-2.2483006,0.4465293,1.6054617,1.2828753,1.4815842,2.4024148,-1.5711423,-0.03520771,1.3748531,-0.3360375,-2.6273677,-0.24611337,0.15440673,-0.34783942,-1.9446919,0.30714765,-0.5740742,-0.6107565,0.21633562,-1.5958483,0.1718919,1.907419,-1.1894335,-0.98444057,-0.09050348,0.7086918,-0.63417935,0.44539595,0.8592405,0.24890918,-0.96290004,-1.1896179,1.8686748,-1.0946581,-0.22590646,-0.5935059,0.9250572,-0.8889966,0.8990487,-0.7343596,1.244554,-2.3895888,0.23245853,0.28703526,-0.94883436,1.1228297,-0.5336871,0.8496036,0.695535,-0.95816684,0.20915687
4f651351-3365-4662-9894-6e4551ec9080,29.398390309675207,-119.60341877822478,0.45135972,-0.3775858,-2.1439803,0.16335453,-1.2959456,-1.6373591,0.8000825,-0.04680344,0.34820235,-2.0497491,-0.48524618,-0.39897516,-0.18529393,-0.8348453,0.30968288,-1.0634185,0.8533208,0.646153,-1.4627498,0.39985758,-0.31567216,-0.7115875,-0.4348578,-0.15209816,0.5967031,-1.3684025,-0.9228884,-0.27243596,0.49558938,0.19254975,0.8970102,-1.7987957,-0.30368814,-0.6559753,0.48208806,-0.58321494,-0.5190618,-1.3184652,0.35968527,-0.8514553,-1.0784438,-0.7807951,-1.209263,-1.3842463,-0.93992865,0.83802885,-1.3281579,-0.4179061,1.9162606,0.8002709,0.6845407,1.1029894,-0.75461817,-0.87672096,1.598979,-0.2508738,0.52864784,-0.19266124,-0.02757765,-0.47064063,1.3033884,-2.321561,1.044283,0.1094078,0.9571325,-0.0877616,-0.42339334,0.11984496,0.9465731,-0.5421138,-1.300568,0.40380383,-0.36096632,0.9979038,-0.26452637,-0.09144265,-1.3225311,0.27760753,-0.99800605,0.046697572,-1.5193897,-0.991554,-0.21959959,-0.67307454,0.45175576,1.3548915,0.12260217,1.2258503,0.83619046,1.9542757,1.6040381,-1.50425,0.71514076,-0.008214105,-1.7782369,-1.0230916,0.2599716,0.62046236,1.1818125,1.2016702,1.3403349,0.83310366,-0.65371287,0.70257235,0.38439178,-0.9910612,-1.0649395,-0.05324577,-0.3852935,-1.7934129,-0.73911226,0.28139392,-1.1726236,-0.16802923,-0.25037175,0.43143234,-0.25391278,-0.02508082,-1.9016469,-1.189315,0.24505937,1.2778187,0.9576726,0.07389156,0.562088,-0.3708754,-0.27860233,-1.290411
dccbd7d1-9364-4571-a184-c26da434016a,1.879219143924601,-97.3619236688641,0.23549059,1.1073736,-1.0651468,0.29829395,-0.8245501,-0.43641537,-0.055742916,0.9683585,1.8166056,-1.1421723,-0.20209561,0.4367633,1.4404325,0.35331035,0.7165894,-1.8755869,-0.6300546,0.2723913,1.5827633,0.7249348,-1.25149,0.47346017,1.1985885,-0.09039552,-0.08903604,-1.633791,-0.070578106,0.5840699,-0.43012035,0.33535522,2.2955022,-0.5892767,1.1566991,0.03978488,1.3815701,-1.0327711,-0.524114,1.0513407,1.2301452,-1.1682181,-0.85128427,1.8946978,1.1827409,-1.1899625,0.6544044,-0.14194365,-1.0471296,-0.1881656,1.3859223,-0.49586543,0.3476268,0.48828664,0.81990683,0.09577452,-1.9095736,-0.27983478,-0.48145816,-0.99690086,-0.17621711,0.3069124,0.62890697,-0.058950104,-1.0723193,0.7459363,-1.7747175,0.041496642,-0.86001796,0.1003341,-0.30151922,1.0992491,-0.87740237,1.124719,0.14215101,-2.0231879,0.030216714,1.4898007,-0.71474,0.6384899,0.64310724,0.6807757,0.3485575,-0.37284485,-1.4214451,-0.18956783,0.6882899,-0.9389341,-1.8070703,2.009675,-0.14294705,-0.7495894,0.6703135,-1.2504153,0.006709042,-0.4337023,-0.23061708,-0.23842245,-2.0756786,0.46663764,-0.5571291,-0.09785194,0.34262037,-0.628799,-1.7990996,-0.11065396,-0.609376,-0.5926899,0.2636236,0.8442851,-1.5798254,-0.021024572,0.38211286,1.660069,-0.7309029,0.34125325,0.5142497,0.24912089,1.144747,1.6764009,-1.6619481,0.7102434,0.40990898,0.8498576,0.16533594,-1.4670392,1.153699,-1.04491,0.20719,1.5419977
673307d3-ec32-48e3-9652-45809c33d238,-30.774765536942567,-146.23810896930647,-0.32435212,-0.7410913,-0.15294227,1.3107266,-1.7815721,-1.0255905,1.2674036,0.6250493,0.5688833,0.82569253,0.41046363,0.5544673,-0.5587145,-0.4286968,-0.38427398,0.5756519,0.22369084,-0.5526808,0.38398013,0.6620572,-0.8931501,-0.009982577,-0.272187,1.9048493,2.1888435,-0.7397192,1.0606029,-0.038255565,-0.707242,-1.4058287,-0.48967725,0.6665011,-1.2022479,1.4947852,0.5408232,-0.27403212,-0.12016421,-1.9278728,0.96269244,-0.8423399,1.0047134,-1.9588143,1.6064333,0.8817363,0.98035747,-1.9567174,-0.65403783,-1.3661363,-0.71410036,-0.8553951,-0.85159516,0.08407073,1.2703644,-0.21333413,1.3074981,0.039402902,-1.0030855,-1.4042811,1.3121341,-0.02778222,2.114055,-0.29103526,-0.17726241,0.03366978,-2.6173983,0.13777013,0.3844328,-0.35143366,0.4810707,-0.98897374,2.0051062,-1.3418802,2.0016448,0.620149,0.44414598,-1.2764149,-0.046630654,0.14462526,0.5406524,0.3153805,0.33914945,-0.5947054,-1.0696564,2.8465579,0.6924378,-0.32740158,0.9614534,0.013360479,1.3984753,0.6594024,1.0593183,-1.137416,0.08522812,0.4332121,0.5166915,0.48242256,-0.4199119,0.6904737,0.22448128,-1.8669698,0.56589955,-0.15742962,0.95848,0.66291004,0.6140514,-0.12762284,0.46209112,1.7168463,-1.0810622,0.03810407,-0.25147626,1.0011215,0.46769574,0.047514547,1.4243075,2.514698,-0.54607344,-0.12008875,0.7922204,0.4537588,0.6826127,0.52658844,-0.20865387,-1.4538084,-1.1873424,1.065854,0.3603565,-1.365722
8b61d141-fee3-49ff-a9f9-412180c904dd,36.483723204707346,-174.8274737009491,-1.4320079,-1.6217502,-0.6041887,1.0213311,1.0072677,-1.3081908,-0.25555897,0.40530488,-0.59540915,-1.7554284,-0.96460927,1.4397855,0.56773126,0.73303604,-0.7029108,-0.8200615,0.5403077,-0.07617724,-1.2639852,1.1939064,0.72370875,-0.10941485,0.066547014,0.5518637,-0.40248296,-1.5223908,0.37091464,-0.6623531,0.024139734,1.2887973,1.6696066,-0.13524675,-1.516333,-0.68835455,-0.849402,0.5250732,1.5981655,-0.77320385,-0.8264162,1.4987504,-0.112693734,0.652315,-0.8057413,-0.33907735,-0.4543733,0.7416654,0.52120066,0.4550317,-0.61341155,0.97316295,0.053834416,1.0532423,-1.0322508,-0.504506,-0.40163392,-0.4712313,-0.31752434,-1.1177033,1.5453398,-1.8825269,-1.0218966,-1.3097336,1.8028775,-2.3490295,-0.83745825,0.5252792,-0.33436313,1.8947393,-1.2908294,0.5238707,-0.4760041,-1.3666176,-0.7677311,-0.16131702,0.9774269,0.74011314,-0.34005204,0.29749367,0.6121347,-0.7947714,-2.008419,-1.0132539,0.11074002,-0.45755512,-2.7332685,-0.42506596,0.87781376,-0.5002748,-0.07451635,-1.0601329,0.7776385,-2.2181249,-0.46852642,1.0432749,0.28482476,-1.3947164,-0.31111288,-0.98881805,0.85703033,1.7677758,0.22928661,0.22614263,-0.46461394,-0.640356,-1.4214345,-0.48453468,0.44777837,-0.80865014,-0.08423553,-0.06484798,-1.4902381,3.229815,-1.1456294,-0.8493296,-0.8482117,-0.25385386,0.8787986,-0.4773184,0.79571354,-0.29552498,1.06753,0.91262996,-0.68811214,0.54393154,-1.4546053,-0.26505423,-0.21079272,-0.3889879
111288bb-81a8-4b09-a16a-8f84f9d8054f,-15.110475968694189,-0.9456233754480081,-0.78718436,0.19405335,-2.9229429,-1.4131484,0.112769544,-0.5591933,-0.4480767,0.5680273,0.9119939,0.73875976,0.5209883,-0.7783198,1.2098713,-0.8282666,0.93953276,0.831369,1.4080609,-0.6565319,-0.2497924,0.64307314,-0.11430704,0.14899561,1.2231376,1.1928079,-0.7684188,0.12931772,-1.2037002,-0.44085878,-1.1084365,0.21269433,-1.2344103,-1.0670339,0.07197077,0.53494173,0.15994816,2.5239348,-0.2117773,-1.0554305,0.5519743,1.2568388,0.41153017,0.577153,-2.9957561,0.056486335,0.38158673,-2.615954,-0.70465827,-0.6842297,-1.1061856,-0.06875588,0.051687002,-0.4092167,-1.1544923,0.18443663,1.1868861,0.43055347,-0.48506704,-1.2520777,-1.2648275,0.76037675,-1.1362817,-0.30731937,-0.9822614,-0.6180584,-0.77424824,0.15066986,-0.8315929,1.4316604,0.6085649,1.4445419,-0.4391616,0.5498609,0.7081608,-1.1770633,-0.48408625,-2.5416849,1.6920841,-0.1297704,-0.23588812,1.3323382,-0.35891807,-1.8934758,-0.37039447,-0.1520469,-0.043995697,0.9709176,-1.4406109,-0.13162267,-0.41671616,-0.63590366,1.2240677,-0.49784324,0.8274153,0.81102324,-1.5332812,1.5910467,1.2211597,-1.0649903,-0.9025195,0.6319357,0.51671195,0.7520623,-0.26902038,0.13144295,-0.91119844,-1.4141786,-0.29459906,-0.123006366,1.6333759,1.1911947,0.69027585,-0.3666395,-1.0492445,0.39673096,1.6230081,-1.6710114,0.9882082,0.4896779,-0.81408983,0.8192413,-2.9547489,-0.24960159,-0.14675212,-0.6659153,-0.06596069,-0.5658795,0.7779609,1.2147536
1d506ff8-426a-4559-8618-59c062c27ddd,50.45762841901771,20.384400359703676,-1.8558904,-0.52824587,0.8181701,0.42970148,-1.3034393,-0.16114548,-0.5982203,-1.0928594,-0.35851198,0.72828496,-2.1113636,0.7356399,0.0008845055,-0.26094982,-0.6740719,-0.005346538,-0.23202771,-0.18753302,0.53279984,0.79589516,1.0785643,-0.40711328,1.9177234,-0.29844916,-0.5934538,-0.93421143,0.99299127,1.2138169,0.7607991,-1.734523,-0.66347104,1.8919578,-0.6052613,0.039929926,0.72255886,1.9805892,1.1148326,0.47637385,-0.056512058,0.06876082,-0.44411734,-0.31106654,-0.24172346,-1.6141971,-1.1323211,1.687902,-1.4121782,0.33495083,-2.1908379,-2.296393,1.1318169,0.8622661,-1.2150578,1.1386005,0.23115286,-0.70594597,-0.2666751,0.43810537,0.038200986,-0.6196958,0.031414125,-0.504107,-2.3375633,-0.45277336,0.42286465,1.8903078,-0.23132758,1.3937211,-0.50296223,-0.20240349,1.5699801,-0.41557485,-0.60009646,-1.5633727,-0.6961473,1.1647441,0.39692667,1.1242374,0.31053707,0.14653298,-2.1616948,0.9011845,0.64643943,0.34678397,0.4154965,0.42759773,2.4586308,0.019947045,1.0135244,0.35524058,0.91488063,1.251122,-0.020043738,1.58041,0.2976271,-0.103668004,0.48846832,-1.4227724,0.9100581,1.0643443,0.29657018,0.71714604,-1.229499,-1.2210376,0.034726903,1.4584041,-0.43300432,2.0523028,-0.56624967,1.0450906,0.7202323,-1.3701222,1.5470406,0.030145653,0.3185939,0.40428752,0.23806345,2.0974622,-0.34622407,-0.59344524,0.7852709,-0.68944895,-0.19888726,-0.35077402,-0.5389873,0.23924018,-0.44357446,-0.8459049
d71c0d8d-f017-4329-a674-4fc2737d9264,30.88807256156923,-57.050086191122205,-0.551894,0.08230053,-0.8827918,0.69810045,-0.1310881,0.5749952,-0.58478427,0.43482193,-0.4137203,-0.88436455,-0.11271569,0.53158784,1.1086006,-0.12935735,0.473295,1.3029628,-1.0869068,0.6932375,0.3548378,0.352148,-0.5989138,1.367793,0.32810238,-1.0485262,-1.455407,-1.8793297,1.6389209,1.0055374,-2.56353,-0.42078757,0.099636585,0.90665376,-0.92943,-2.181764,2.1721535,0.47805223,0.7653169,0.684503,0.16301563,-0.39226475,-0.2904508,1.1664529,-0.42721885,-1.5338327,-2.021719,-1.2197223,-1.1403729,-0.6638221,-0.33449575,1.3840997,0.03619506,-0.21621823,-1.5355666,-0.10179785,-0.9483027,-0.57095754,0.061126206,0.29144153,-2.1584506,1.1613222,0.08319934,-0.92572033,0.025934357,-0.53132665,-1.0648724,0.49560264,0.07798482,-0.82739085,-1.349071,-3.085936,0.60967624,-0.42692408,-0.7905313,0.19915254,0.7858174,1.5116625,-0.24764055,0.38913622,-1.2714798,-0.44734314,-0.4464252,-0.03010619,-0.6916709,-0.36789623,0.44549724,0.013965994,-0.35028622,-0.26223847,-0.99480295,-0.11174639,-0.63161695,1.5282364,-0.4182756,1.1687027,0.03721547,-1.67454,-0.09486994,-0.66074497,1.6958555,-1.0301313,1.2627031,-0.3853985,-0.277465,-1.1363863,-0.8656032,-0.29028237,0.6899209,0.32839286,1.1202146,1.610314,-2.0634682,1.1248847,0.03271103,1.4303256,0.19926862,-0.3517881,-2.446719,-0.122978054,-1.6521646,-0.23425989,0.053516917,-0.8234471,1.5085446,-1.1803075,-2.0323641,-2.0400584,0.13743494,-0.10542064
8c45da40-58ab-47d6-854a-92c2b2f963df,71.31369326155018,-53.35028735847864,-1.1447864,0.5190888,1.2171255,-0.48823103,0.9744403,-1.0605942,-0.4584465,-0.4639779,-3.3603044,-0.32763442,-0.13246119,-0.7657259,-0.319853,-1.1417382,0.7517409,0.71365905,0.37401146,-0.14238693,2.1701012,0.6035884,0.30365968,-1.3138274,-1.3669784,-0.4556399,-1.5130011,0.52786416,2.7971938,-0.7944746,-1.790566,0.41744822,1.5448606,0.055409912,1.2688292,0.88648224,0.7146589,-0.14469804,1.247,1.1888822,-0.80571836,0.97568643,0.66468227,1.9578302,2.9702547,-0.76888585,-0.2547434,1.4887558,-1.0352902,-0.39337277,0.9670644,-0.84391576,-0.8621644,-0.11095585,0.9368807,-0.2954069,0.2531953,-0.4141428,0.07129322,0.07512557,1.1960654,-0.9503582,-0.85302407,-2.0535812,0.9109893,1.1097344,-1.1908721,-0.57172114,-2.0856397,-0.044187468,0.8177674,2.3335273,0.086939126,-0.74799544,1.5556614,1.0087049,0.41436857,-0.33090296,-0.79861486,0.47520202,0.13163644,0.9448426,-2.0550437,-0.8734633,-0.8264041,-0.37616152,-0.52373105,-0.20056845,1.5067974,1.2110059,0.043766484,-0.3744598,0.36563933,0.43008876,0.9998854,1.5099031,-0.4331634,-0.59689796,0.14222658,-1.6507622,-0.29223186,1.5574855,0.52564883,0.8539666,-0.4619134,1.264115,1.6093652,1.6980703,-0.22882691,0.41813657,0.59783447,-1.0763768,0.08069924,-0.2388203,0.012903299,0.13993125,-0.10379234,1.554227,-0.6948982,-0.9293333,0.105017416,-0.30195054,2.6640077,0.6215841,-0.16262975,0.98435855,1.3470297,-1.6327914,-1.582441,0.9009447
31fa1e95-faf5-4e2c-a1e7-6a1daa151984,85.85926795934671,-143.7657633411451,1.2010664,1.1744479,0.695507,0.81132275,1.0198239,-0.79920167,-1.0180554,2.1000228,-0.33887976,-0.8051022,-0.35992458,-0.8316116,-1.6797506,-0.5498797,0.5724607,0.023614077,1.0698172,-0.53225404,1.7102859,-0.492203,0.3559408,-2.5071492,-0.08250674,-2.2034533,-0.54779255,-0.20753373,-0.074838705,0.4928909,-0.041724622,-1.9742963,0.82897556,1.7037205,1.0031054,1.7096727,-0.7816046,-0.534336,0.7944516,-0.5266449,-0.11317698,-0.16582595,1.3193787,-1.9069618,-0.87526274,-0.059032183,1.5986984,-1.5012044,-1.2850567,0.43924317,0.17455605,-1.1745666,-0.8207957,-0.35324967,-0.5555759,-1.3700112,-1.5883336,-0.37575558,0.9208707,-1.7805073,-0.24172032,0.9227442,-0.5110434,-1.2583187,0.38094276,-0.903321,-0.13121638,0.8738266,0.78207767,0.2994975,-1.4330318,0.28988406,0.0011615987,0.5352767,0.8435663,0.90018594,-1.306502,-0.4914658,-0.76215726,0.81411695,0.040349334,1.5784951,1.5715252,-0.15428756,2.7476742,-0.18426214,0.80321276,0.86367744,0.10876546,-0.23032248,-0.36961737,-0.35165304,0.12551433,0.07046537,2.1279044,-1.842185,-1.180066,0.08693345,0.18995258,0.9615014,0.20490712,-0.048079874,0.020663545,-1.1972674,-0.0031126318,-0.5836286,-0.22376958,0.7372166,0.5119257,-0.7374202,0.4385051,-0.55830175,-0.10492592,-0.2455456,-0.6614353,0.28804404,-1.2281377,0.101013884,0.6599861,-0.27781376,-0.48975536,1.6551011,-0.8317624,0.92754734,-1.3340018,0.19551133,-0.7704683,1.4024062,-1.1317852,-0.031830847
67336f9a-5cbf-48a0-8ac4-6f65ae5a4192,-85.5204439298586,152.78117916326886,-0.14918841,1.7977186,-0.6095593,1.5095965,0.8113375,-0.54680574,-0.63943577,2.7290912,0.74071264,-0.5696846,0.6837025,-0.353832,1.2334512,0.49882543,-2.1423037,0.51189154,-2.2148063,0.4416777,0.9903073,-0.51808596,0.7733903,-0.16276494,-0.36136895,1.9798852,-0.5135335,0.6221043,0.4269541,0.22882769,0.17718211,0.4407157,-0.26012626,0.71891755,0.24366371,0.4127798,0.07414795,0.023751834,0.46123347,-1.8233582,1.7333326,-0.9878748,-0.33595482,0.3474857,1.7091445,-0.37225798,-0.7798955,-1.4776074,1.5377313,-0.8755849,-0.6621653,0.02554802,-0.64301306,0.1559751,-0.5733196,0.33414152,-0.018192116,-1.5610445,0.69973403,1.8848366,-1.1205817,-0.6287878,-1.2325479,-0.34484735,1.2611148,1.7832425,1.7346249,0.72997004,0.7235053,0.4732919,-0.06740699,-0.12269419,-0.8485592,0.5299556,0.39096746,-0.6069841,-0.40077272,1.4323364,0.9581788,-0.7225287,0.80294895,-0.43633333,1.3696619,-0.5422089,-0.049393162,0.39984405,-1.885556,0.8359584,0.28344947,1.082836,1.1263134,0.36034727,0.98510325,-0.44668746,0.48883033,-0.48377594,0.3243245,-0.44529524,0.64063174,1.8375745,-0.016017675,0.66745937,0.70144415,1.0157799,-1.4315974,-1.9569603,-0.11209557,-0.3981861,0.5232862,-0.5206866,0.40273854,1.7813823,-0.41320834,-1.7656754,-0.78974473,-0.75637335,-0.13889416,-0.39000833,1.0777366,0.47993994,-1.1485158,-0.59777266,-1.0143834,0.6167674,-1.1482494,-1.1797236,-1.0211638,2.0092156,0.9267722,-0.55507267
dca12bb6-7539-4a2d-94bf-7509f4450794,-72.87987910964489,-38.51997123531211,0.1994317,-0.047255013,-0.072471246,-1.691217,0.285727,0.25903663,-0.636694,0.64788103,0.42803892,-1.5705129,-2.1660867,-0.44263366,1.5677917,1.1448382,0.6486446,0.7644062,-0.7123792,0.8412844,0.88471603,-1.4731843,0.8641199,2.2729042,2.7268426,-0.19658706,0.20960145,-0.39026734,0.50845283,-0.5125615,0.36655998,-0.0037243266,-0.521831,2.154572,-0.52250487,-1.602109,1.2401996,0.58370495,0.49866462,-0.6368099,0.21516342,0.52377594,-0.023945792,-0.44873065,0.7746428,-0.6886739,-0.7761893,0.735346,0.4485532,1.4158996,-1.0051036,0.5135387,-0.2917422,0.33731273,0.5268858,0.14057787,-0.48242426,1.5935076,0.66438824,-0.051373474,0.75270987,0.83532524,0.6613325,2.2290363,0.07245461,0.187728,-0.12805142,-1.6639534,-0.97473407,1.8573228,-1.2930293,0.32304648,1.2817982,1.7147352,-0.79070073,-1.3915067,-1.4235996,-0.064065486,0.32266954,-2.5041006,0.64985716,-0.33347365,-0.34353986,-0.30048633,0.81960744,0.09507118,0.09587456,-0.92884827,0.5296434,-0.817265,-1.0695467,-0.5302784,-0.03715762,1.0545626,-1.859256,-0.07058089,0.0584627,0.5049563,0.110806525,-0.33187,-1.4721935,1.0048856,-0.9015992,-0.19318135,-1.1070834,-0.0072642365,-1.0018533,-1.3358849,0.14780715,-0.7437838,0.81213987,0.8888517,1.7274387,0.90311056,-0.6262803,-1.0712377,-0.5324984,-0.48620522,0.23246579,1.1070522,1.263392,-1.4266763,0.24914452,0.44448996,1.2057687,0.29749063,1.1166226,-0.36472517,-0.22664538,-0.017762497
1ef7cf41-bcc8-4682-b435-bf81d3124633,-7.976488148970873,21.162783455955008,-0.34373486,-1.3780508,0.297389,0.68866754,-0.7265662,-1.1312085,0.82907677,1.9814323,-0.9898343,0.40078956,-0.7964383,-0.46452472,-0.6554643,-0.21160053,1.1467944,0.1299017,0.649955,-1.8877673,0.71928453,0.3926792,-0.5330012,-0.10382432,-1.0543426,0.5792992,-0.46443477,1.1507635,-0.81045294,-1.791295,0.09508843,0.017782172,-0.119697824,-1.0794111,1.0085938,0.49721277,-0.225003,0.10401958,2.0266306,0.16718246,-0.04097302,-0.20725738,0.48089787,-1.507918,-0.13163698,1.2304599,-0.77196956,-1.5825919,-0.74994254,-0.31993192,-0.43467978,-1.3976873,0.15215392,-1.0460793,2.3137975,-0.17318356,-2.3676093,-0.78561866,0.9403193,-0.8240635,-0.50340486,0.8944354,-1.0073991,-1.104968,0.5639435,-0.3019806,-0.6546813,2.4217982,1.2668353,0.317062,2.1590757,-0.50724804,-0.46560752,0.93696445,-0.04263715,0.552916,-0.046938434,-1.2757846,0.97585064,0.07627138,-1.2869941,0.75703543,-2.2567642,0.21741503,0.82888395,-0.5985922,0.057341002,-0.54376626,-1.1398662,0.28767458,-0.9622764,-0.92992747,-0.9529851,-0.30068713,-0.81948346,0.028364401,1.691878,0.54268074,-0.25889045,0.3334515,1.3475107,0.72740155,2.017901,2.2631817,1.0342971,1.1333168,2.0009048,0.27136332,-1.3872409,1.677787,-0.12583591,-0.5766611,1.1627724,0.48526004,-0.8549316,-0.37153962,-0.9747974,0.1740548,0.061856523,-0.88074464,0.4993695,-0.3463188,0.84335554,-0.35228112,-0.3210963,-0.23062104,1.1226089,-0.3801509,1.4044827,-1.0908815
ab2b7c48-f57a-4929-b97b-62452dd32baf,60.63962736030973,-163.264892647994,2.2273302,-0.10808859,-0.1975035,0.0060794554,-1.5111222,0.06551259,0.13631423,0.20725681,-0.92518824,-1.0655737,-0.7903132,0.5742416,0.6153372,-1.6193471,0.56269974,-0.19134602,-0.3374104,1.0324931,1.4070541,0.26732293,-0.19041888,0.094651446,1.0354773,1.7825515,-0.096139416,-0.23930584,1.6191969,-0.023907298,-1.0680556,0.37192646,1.1200345,-0.35344157,-0.91954297,-0.31184694,-0.35914898,1.3556609,-1.2772981,0.13303068,-1.2842255,-0.8938124,0.35062775,3.1587505,2.295642,-1.22715,-0.17428054,-0.24157177,0.44811875,0.050082024,1.7847534,-0.35184312,0.20125203,1.5502888,-0.44750047,0.9345443,-1.1029798,0.09891856,-1.0634056,0.6432615,0.17956844,-0.9633426,-1.2439237,0.54244065,-0.63369036,0.89358014,1.4590745,1.6203228,1.6578203,-0.04964023,-0.12518173,-0.7135464,0.50275105,-0.9736454,-0.18751031,0.39989236,-0.3747525,1.5218904,0.06474652,-2.1573074,-0.56866366,-0.41037947,-0.62350774,-0.64544916,-0.28950003,-0.1990065,-0.4924499,0.8491488,1.0724335,-0.32419842,0.45685017,-0.18332365,0.4744439,0.45932844,-0.07372455,-0.287742,-0.6518063,0.45691714,0.1372397,0.41458863,0.7577375,0.78793204,-2.4699068,0.054468628,-0.67956567,-1.2770618,0.24583945,0.4888648,-0.62371176,-1.9269913,-0.6221696,0.3879934,-1.993127,1.5836531,-0.539881,0.6629561,1.2738506,-1.4742814,1.6962593,-0.5836022,-1.4097129,-0.47077224,-0.19087544,0.69696414,0.53572553,0.7331161,1.5157057,0.67977417,-0.6476929,0.6720426
b27d2505-4122-433e-aa97-13b2d5bcd644,-9.362905800810566,3.5443211188143096,-0.1580025,-0.23179716,-1.3618604,1.1998414,-1.9027057,0.8640975,-0.7600879,1.3540652,-2.5270004,0.44736317,1.0989662,1.3068421,0.26646033,2.2099996,1.2412316,-1.7855159,0.45563963,0.78459686,-0.28371766,-1.0206125,0.7555987,0.48968837,-1.2824726,1.0459157,0.96214473,0.77037925,0.28787452,-0.8891208,-0.9393897,-0.68632346,-0.5372876,-1.355037,0.74644864,-1.0585071,-1.0091821,-0.812782,0.6541666,1.055203,-1.3829824,0.7808189,1.7890164,1.759172,-1.2369375,1.595881,-0.4854109,1.310366,1.2845381,0.7400427,0.9909295,0.16342331,-0.1328177,-1.5575526,0.24475427,-0.22023185,-0.2883111,-0.39692158,0.44948873,0.9110962,-0.74862176,1.2250401,-0.20549539,0.8355335,0.36304072,0.5377334,0.30693156,-0.28599596,-0.045676872,0.12203015,0.064092495,-0.35673416,-0.2898215,0.4973403,0.114337415,1.130536,0.19275196,0.6522279,0.31906325,0.12584795,-1.2979496,-1.5180635,-2.253729,0.27530602,0.2296892,-0.14022098,0.72993433,0.2465787,-0.8618129,-0.8630453,-0.10755709,0.6914878,-0.72783345,1.0714449,-0.54819566,0.5411674,-0.16880067,1.4333141,0.25052255,-0.76428246,0.42193305,0.7666348,0.93671775,-0.4029357,-0.2734231,0.1942026,0.7828376,0.15601204,-0.33642676,0.00078449724,0.76935667,-0.53959453,0.17940487,1.3679959,0.85328925,-0.476152,1.3853576,-3.0936525,-1.150286,-0.26765934,1.7701043,-0.75041485,1.2055357,-2.7566695,-0.44129416,-2.2671876,0.5462974,-0.036980484,0.8552434,0.30088523
1814d30e-583a-40a1-b3ad-083435a70fd5,26.803876372164225,-74.25535032920362,1.1993743,-0.29230788,1.6614945,0.41953862,0.8519099,-0.5171702,0.95743215,1.1940322,0.17789075,-0.5929545,-0.5564806,-0.47806856,0.6080865,0.17290461,1.3118758,-0.08223234,-0.3838897,-0.70702416,-1.1770408,1.1175579,0.41032872,0.29596937,-0.9343244,1.2317761,0.21939951,-0.1444568,0.41335058,1.0102553,0.9038706,0.658253,0.32518405,-2.5751266,0.46851316,0.11678268,0.7356872,0.35805464,0.1549818,0.07378579,1.586396,-0.9272185,0.08465707,1.5304749,1.0825465,-0.25394997,0.31108648,0.54453784,-0.91763437,0.63608015,-0.97720426,0.6693139,1.5300671,0.84059167,-0.56048036,1.0079317,-0.9461285,-0.48297578,0.7510126,-2.1493874,-0.32855147,-0.3750082,-0.08439124,0.07304066,-1.1658863,1.9815968,0.61512923,0.48075724,-1.5281162,-0.8437838,0.14745729,-0.10358909,0.10486294,0.89309704,-0.09359282,0.9429906,1.226572,-0.6059386,0.060767412,-1.695827,-0.90553063,-0.84555846,-1.8701458,-0.78565466,0.2381466,-0.77032536,0.09573699,-1.563552,-1.4264462,-0.53795,1.0027891,0.49467978,0.10822905,-0.20510338,0.118159875,-1.0437045,0.051756307,0.8156543,1.39936,1.010645,-1.0361481,0.037050936,0.5723648,-0.02947506,-0.6039788,0.51159096,1.8787826,0.006017522,-1.357708,1.3704766,0.41424417,1.3127986,-0.40760902,1.2553813,-1.9862177,1.666892,-1.7753171,-0.43967438,0.4363683,-0.5401551,0.35846853,-0.14316902,1.5117286,-0.9919694,-0.34054214,0.060718656,0.6911966,0.6148408,-0.8992473,-1.0062481
488d8e2b-d68c-40e5-89c9-936564d61067,4.296596035221526,-118.54988574184833,-1.0158452,-0.4479241,0.11186856,-0.0046493053,0.47096545,-0.2973054,0.9582457,1.3123604,1.791612,-0.6019921,0.23464988,-0.31152532,0.2109563,1.9273888,-0.14934176,2.2418814,-0.9019599,-1.095716,-1.3291602,1.1304724,-0.23240821,0.06606356,-1.5666566,-0.95200855,-0.47200942,-0.3648365,-0.5425308,-0.13362633,0.28016043,-2.314754,2.0446923,-0.11358589,0.15205595,0.16339965,0.89908135,-0.32140028,-0.09436372,-0.29853755,0.11420765,-0.51664215,-1.1949106,0.52656573,1.2969006,1.9503714,0.22657986,-0.8766222,-1.1503764,-0.5172658,1.0170954,0.22031029,-0.9449972,-0.45342532,0.56878716,1.591471,0.30464467,-1.3748835,-1.3888316,-1.1020329,0.5405144,-0.70851296,-0.73033535,-0.12895837,0.7701358,-0.10653579,0.38262582,0.9722724,2.034205,0.34372604,0.013250685,-1.5803953,-0.4820126,2.1433134,-0.71737474,-0.77764475,0.5804785,-0.3021186,-1.3253074,0.842548,0.36306524,0.76371044,-0.32205713,0.52538556,0.56856996,-1.5770681,0.11614927,-1.6686027,2.705907,-0.3369116,-1.2361485,0.017547442,-0.27405423,0.3309667,0.03276043,1.2259238,-2.4207973,-2.0313196,2.2831454,0.36729777,-0.26095808,-0.60647357,-1.6981593,-0.2559713,0.91573864,0.04987342,-0.33052742,-0.4605406,0.45746723,0.1446531,0.72865325,0.11624156,0.5668205,-0.4760909,-1.1254237,-0.41883323,0.7333572,-1.0174004,0.55605984,1.0287762,-0.054831088,1.1181843,0.6218437,-1.2684686,0.7422272,0.67713183,-0.34484795,-0.5370266,0.49788365,0.61798793
24e8d757-d1ac-4870-9d22-3056e68f68c2,-81.62802360367874,-57.97551892685168,1.6911635,-0.15286258,-0.75425243,1.3319349,0.8922335,0.64760727,0.6242365,0.97229064,0.522626,1.0882094,-0.014355432,0.7355989,0.70608383,0.73482215,-0.38869387,1.2443476,1.3744365,1.3072898,1.9000417,-1.8338814,-0.9667296,-0.5618549,0.367022,1.5932938,1.907436,-0.42390373,2.1834655,-2.0601277,0.3494689,1.5196207,1.2431965,0.57316613,0.6415204,1.260788,1.5532535,1.515063,-0.6789934,0.4152884,-1.8096364,-0.3028465,-0.24401514,-0.8741078,-1.1961327,-0.056912635,-0.08408478,-1.0013121,-1.148212,1.1624267,0.2922048,-0.027779253,-0.24076174,0.85961413,-0.51103437,1.0847175,0.81688243,0.9548889,-0.42078385,-0.30942342,0.3965563,0.49398544,0.5138507,-0.8888316,-0.9368791,-0.58129716,-0.4711254,-1.0031775,-0.019884102,0.92890036,-0.1856628,-0.23890294,0.24855043,-0.11642595,0.99202013,0.7461624,-0.33998594,-0.98287094,-0.56309944,-0.4249198,-1.2466384,-0.9458967,-0.7174453,-0.24453542,0.5312336,1.6134303,0.0019077827,-0.22872292,0.3841032,-0.15802583,-0.5593165,0.6531198,-0.87283397,0.534997,0.3374034,0.38937318,0.9449043,-0.054430697,0.02170815,1.5207568,-0.011358339,0.5181991,0.7209432,0.89541334,-0.275497,-1.3152502,0.2760031,0.9787995,0.51940423,-2.268149,1.0690699,0.36499175,0.29636812,-0.40553227,0.14037918,0.5125788,0.017187241,-0.16998337,-1.2351539,2.4850156,0.78379893,0.630583,1.9937239,-0.17044011,0.36993363,-0.92289454,-0.08966841,-0.7163402,0.36091253,0.63162595
8e3bc2a9-5482-48d3-b41d-87ed1acb6bc0,-4.897261860162956,14.94666748874323,1.5464969,0.67881763,-1.3301778,0.70627993,0.66930664,-0.8955998,0.58065325,-0.292987,0.04617036,-0.10465835,0.30752632,-0.66765815,0.60356253,-1.2802572,0.59272623,0.43805486,-0.20401804,-2.3093226,1.2812837,-0.520534,0.36647433,0.39259017,1.3728788,0.1401235,-0.39755842,1.7654153,1.461166,1.6055982,-0.39212102,-0.45271173,-0.5450747,2.298435,0.22454584,-0.59947455,0.6811023,0.74748355,-0.7722358,0.37018478,-1.4902735,-0.6540443,1.5782269,0.4237131,-0.33915278,-1.0877914,-0.6981887,0.071565896,0.5374664,-0.1832455,1.1245099,0.59707063,1.4173722,0.123472415,0.43190596,-1.9131289,-1.6446185,0.28031763,-1.6602411,-0.14018486,-1.1232104,0.18025105,-0.7956302,1.0066262,1.9426311,0.74256784,-0.53710234,0.21372028,-0.4407883,-0.70439965,0.12269077,-0.36218598,-2.325913,-0.20503531,-0.8353997,1.1475513,0.56597036,1.0857391,-1.4431229,0.32861707,1.209933,0.12690572,-0.18291864,0.58574563,-1.3865383,0.28949836,-1.5666893,-0.13270423,-1.5206261,-0.29433733,2.5992281,-0.0102977455,-1.5780592,-0.1733437,-0.004938846,0.74162817,1.9705774,-0.254916,-0.12391673,-0.7020364,1.2300272,1.8296735,-1.4148089,-1.2075039,0.252698,0.70550907,-1.2644038,0.49953848,-0.4617953,-0.6879552,-0.81288457,1.167576,-0.79576296,-0.861069,-1.0197138,-2.0132706,0.3748962,-0.8254716,-0.058863685,-0.063463226,1.2910337,-0.8881847,0.2526991,-1.4274113,0.6346372,0.45425826,-1.2154992,-0.87955403,-0.11129443,0.61521864
302eccd4-03d3-4c12-af4b-3eaca6f09443,23.1207450628996,21.98007811046955,-1.7781123,1.7966393,0.7960483,1.7699313,0.09108164,-1.2595605,1.2703748,0.89454114,0.033507653,-1.174183,-0.04891404,0.9684639,0.42156878,-0.16911285,1.9360604,-1.6534287,0.36808565,-1.8250065,-0.8616962,-0.09804528,0.85712254,-3.2602944,-0.7362644,1.3365035,0.43328717,1.2328074,-0.11135597,0.13068105,-0.38594654,1.0604507,-0.829535,-0.7586847,-0.21311733,0.57895654,-0.41086093,1.6944425,0.509143,-0.99475485,-0.061793897,-1.6239398,-1.1675129,0.99541813,-1.4352359,1.176232,2.8831148,-0.78818566,-0.85822815,-1.0067096,0.90943694,-0.009790634,-0.48900747,-1.5838408,0.9271107,0.75086516,0.13657993,0.41325742,1.1626152,-0.77058065,-0.2043037,-0.67943156,0.13970448,-0.86391103,0.49606642,-2.2051814,-0.47356293,-0.6170158,-0.36912084,0.44023362,-1.5125757,0.84059834,1.8838302,-0.59394974,0.28171176,0.116404764,0.26108286,-0.49555117,-0.7168613,-0.19299242,-0.25667992,1.5483721,1.0402675,1.8025844,-0.33110437,-0.46753213,0.9491113,-0.8751418,0.09621468,-1.3312911,-1.5134512,0.11950805,1.2248359,-0.5148514,-0.23223402,-1.2432275,0.0005053631,-1.1058618,-0.46515924,-0.52696496,2.3523388,0.1301487,-2.5561633,0.06196671,0.86227137,-0.04491686,-0.16711655,0.094179645,-0.78504914,-0.9438527,-1.1111573,-0.54337686,0.4813606,0.57295316,-0.5394853,-0.7419044,-0.6981269,0.6828566,0.19629447,-0.19129057,2.225817,0.55187494,-0.02062718,0.11320028,-0.9210501,-0.44954225,-0.8070143,-0.6967174,0.8892513,1.0369219
c141b461-83c1-4316-9fca-c46a37d0103c,0.352181654303962,4.695458528153466,0.29401362,0.59895235,-0.33753684,-0.47187176,1.2556049,-0.84690887,1.7444118,-0.6475534,-0.29842493,0.9427769,-0.44566017,-0.3610815,0.7842773,1.2587317,0.5707084,0.6929304,0.5855759,-0.6002318,-1.275505,-1.9711655,0.26321414,-1.0806594,0.5637821,0.91275233,0.062490985,0.94393384,1.5657188,-0.31701803,-0.07602794,0.38557664,1.9494193,-0.9804463,-0.30299544,-0.89941967,0.50315046,0.4244717,0.962016,0.14635532,-0.12106785,1.8220065,0.08718238,-0.73068327,-0.45769244,-0.7114685,0.29966083,0.3587448,1.2397051,-0.28942427,-0.35487062,0.8474586,-0.9372221,-0.27158284,1.0750715,-1.8230422,0.03636923,-0.59194946,0.8762599,1.2254878,-0.9833667,1.3146327,-1.0907358,-0.5662688,-0.5884828,-0.1786092,0.89685154,0.6005129,0.55417806,0.7954353,-0.81779057,0.995544,0.9841999,0.22103012,0.47832274,1.6552296,0.99495,-1.4956471,-1.1505437,1.3064516,-0.26577172,0.5711154,0.108820245,-2.2679207,1.8360766,0.6437396,-1.4439214,-0.68115604,0.10772292,0.90030384,-0.11232902,0.20934018,-0.68181926,0.5480435,0.026944729,-1.8585747,-0.66104895,0.9740311,0.31984195,0.3961852,-0.5176026,-1.6875141,-1.9376131,-0.117661096,-1.6769648,-0.5992473,-0.7414847,-0.33459884,0.77475554,-0.14634973,0.4555112,-1.7559576,0.9926051,-0.7592591,-0.26761866,-1.1125968,-1.7285473,-0.22024769,1.4561144,-0.09867466,1.084717,2.4635215,-0.22795014,-0.41278377,0.67026985,0.15415522,-1.2588103,1.2244003,1.0297813,1.2964116
7cacb7e1-b2f4-48fa-9d22-60dbe7096a83,6.535611294959963,-80.32785712859324,0.80697507,-0.12607309,-2.103105,1.012209,0.24713571,-1.7629932,-0.8498411,1.0411838,0.3245028,0.8254833,0.51972413,1.4233732,-0.38231504,-2.1162822,-1.3130765,0.32240328,-0.14247304,-0.33371502,0.10628003,-0.19508725,-0.69819456,0.12249666,2.2471738,0.38425666,-0.71408635,-0.6767938,1.1002437,0.85839987,1.2395397,-0.797213,0.3317515,-0.8627159,-0.22652675,1.4312557,0.04337518,-0.9266437,1.5745227,0.31422114,-0.32263386,-0.87196136,-0.33391845,-0.08345184,0.12996957,0.19063997,-0.29140306,-0.62519735,0.7297639,1.9067879,0.49210846,-1.042833,-1.7833259,0.24747704,0.8231848,0.73685664,-0.34709015,1.1836337,-1.7130635,-0.20732836,-0.5118226,0.86290187,-0.58650255,-0.21250688,0.1681156,-0.7545266,-1.0819386,0.83773154,-0.2480077,0.78241116,-1.3144708,0.91450167,-0.10906626,-1.1117238,-1.5747861,1.4756987,1.073956,-2.4906802,0.58778363,1.6094484,-1.4469197,0.00817131,1.6294154,1.0146607,-0.029487854,-0.4477508,-0.95977235,-1.0552146,2.3346796,-0.42557067,1.2129248,-0.8954745,-0.7941668,-0.34845576,0.40500388,1.8432623,0.028514242,-0.19698435,-1.0858583,1.7885865,1.1138171,-0.27361122,-0.38910574,-0.2805344,-1.4864458,-1.6197145,0.3732662,0.8248127,1.1171694,-2.3238525,-0.318105,-0.08437847,0.5923031,0.24709831,2.141046,-0.13623668,-0.1779812,-0.6068206,-1.2379278,-0.4273654,-0.3738959,-0.5479584,0.566025,-1.1354595,1.19212,-0.44489726,0.34336329,-0.29963,2.1586728,-1.2234732
0069683b-c4db-4cf6-8a05-c75c698cb9c1,33.739485406987626,0.9829997217701703,0.9916971,-0.30904832,0.46184444,-0.7323133,0.11374217,0.96607196,-0.9274238,-0.1832281,0.47240064,-0.5151659,1.0462879,-0.1876874,0.31581578,-0.4635271,-1.343878,0.25515094,-0.24796312,-0.120539516,0.8785552,-0.3345368,0.07595594,-0.0389936,-0.10650676,0.034147896,-1.7322532,0.15011111,-1.1287012,0.029044533,0.58628285,0.2784123,0.8823612,1.3185225,-0.012163968,-0.25504234,-0.22927113,-0.23284304,1.0204045,-0.77935684,0.04513142,0.24627185,-1.1806765,1.1885651,-0.12827732,-1.2052407,0.31061506,-1.2106636,-0.22608954,0.25987092,0.19024777,-0.4937315,-0.15962324,0.76127595,0.23285048,-1.3414887,0.56302714,0.23990843,-2.2014706,-1.282305,-0.5067502,0.4345131,-0.49142334,0.21430501,-0.09424321,1.4501897,1.0036155,0.1843365,-0.83888793,-1.0720202,-0.49611798,-0.89483064,0.6505495,0.83230525,-0.8328223,0.033624064,-0.58141035,1.9147927,0.7065456,-0.07525734,0.31581372,-0.20064288,-0.22379377,0.82705,-1.1026579,-0.59733063,-0.1303797,-1.3700789,1.7942879,-1.4249642,-1.1774843,-1.2850397,-0.299007,0.6433423,0.36273685,-1.5266383,0.5674092,0.13370979,-0.80520123,-1.89572,1.8713189,0.4808483,-0.59025705,-0.4652371,-1.0700942,1.5209216,-0.5936955,-0.9074908,-1.53526,-0.5130908,0.01911658,0.8847962,-0.29599208,-0.34839416,-3.0003057,-0.6326334,0.7552697,-1.4870621,-0.49294645,1.3712279,1.330598,0.6651373,-0.30464244,1.8743756,2.014824,0.71059173,0.18944117,-0.7729633,-0.45253098,-0.39042044
862c7825-5019-40b3-9b88-aaeda26e6ea9,29.314451637968276,-76.76687591768018,-0.16796432,-0.61447287,-1.0745565,-0.101137675,-0.0328703,1.4382428,1.5568652,0.44848174,-1.038971,1.5742315,-0.029930875,-0.66402483,1.534708,-1.3618209,-0.85162956,0.575945,-0.44511446,-0.54424095,-0.6300938,-1.970343,-0.23174071,1.5452274,0.28559145,0.53962076,0.40170372,0.016163517,0.24721655,-0.46280304,0.013999464,0.28461993,0.19662307,1.7219149,0.54489446,1.8819672,0.5158688,-0.09221565,0.7809259,-0.024811015,-1.6209328,0.48157495,0.48836896,-0.68606216,-0.15255138,-0.22710261,0.084465064,0.5179484,-0.12772645,1.0943896,-0.7348401,0.44911402,0.44860047,0.91510504,-1.2292734,2.0524013,-0.22411162,2.0834427,1.8189025,0.8935572,-0.49753752,-0.18750994,-0.8942731,-2.223383,-0.5494956,1.0879868,1.7498573,1.3497256,-0.2867649,-1.198811,-1.7425258,0.06979171,0.13820064,0.67915875,0.20963514,0.5722403,-0.1663862,-0.78895974,0.68544585,1.4694685,-0.4424868,1.1613693,-2.103827,0.5376001,-1.4198174,0.90820724,-1.1827273,0.032781366,-1.3507881,0.4779439,0.9943756,-0.7837264,0.8610936,-0.20368515,1.0352343,1.0053,0.6232401,-0.7440034,-2.7117136,-1.0373973,-1.6296676,-0.5627513,2.1776638,0.8722973,0.46413016,0.025347166,1.1418085,0.88254076,-1.232369,-0.6714151,-0.13355757,0.7659583,-0.69883966,0.16711152,-1.455599,0.25335652,0.48248124,-0.611323,0.3455218,-0.25762105,-0.0018272079,1.5532616,0.21713856,0.2161066,-0.8324622,-1.0941967,-1.257255,1.9235564,0.7912058,-0.045720022
f3b18884-6ee0-4c25-854c-ac06ea36719a,0.32146237331255634,68.60811539417264,-0.18580459,0.4880989,-0.7138432,-1.818676,-1.4458659,-0.094620496,0.36718723,0.19885467,0.60432005,-0.19057564,-0.93658507,-0.96049726,-0.1468587,-0.52022475,-0.89339066,-0.0083202245,-0.5348248,-0.9250978,-0.8467416,-0.62891984,-0.6128704,0.36790013,0.86746365,-0.7511716,-2.0777252,2.2586806,-1.3510785,0.34861833,-0.07400248,-0.5933574,-1.1931541,1.6750622,0.05283874,-0.61161023,-0.19195879,0.69170874,-1.2008332,1.0179056,-0.7175081,0.6947133,0.4637782,0.39905456,-1.0685966,0.5646542,-1.3851,1.045613,-1.2519454,-1.0660123,0.894113,1.4364704,1.2150154,-0.5030123,-1.3307878,0.29981422,-2.2141404,0.6386789,-1.2164061,-1.5369961,-0.19516915,0.45241696,-0.10468792,-1.6067791,0.09158545,-0.36605597,0.41943362,-0.7227777,-0.120571904,-0.018984992,-0.29587814,0.747183,-1.3010007,-0.36311218,0.29748234,-1.9178853,1.0892199,0.9108278,-0.015227216,0.75669426,0.6304093,0.37466538,-0.58226866,-1.108191,-1.6268759,-0.30510056,-1.597444,-0.7406402,0.5832937,-0.8841958,0.492856,0.44919917,-0.52398115,0.9771084,-1.2296464,-1.0233046,1.1789371,-0.41719425,-1.0446385,1.1738971,-1.8669174,-2.4873407,-0.091183394,1.5158297,-1.4325866,-0.8605808,-0.35277498,1.4481701,-0.3996412,0.8036774,0.6122343,-0.9901938,0.73638314,-0.7526048,-0.7136523,1.0965585,-0.4986545,-0.25849888,0.585017,-0.846366,-0.15694362,-0.30026352,0.8743813,0.09036357,0.17863373,-1.4513118,1.0279773,0.5155601,0.3839619,-0.094180346
74d1e2f2-99c1-4b4b-be95-6bcb5a7bc656,43.888427297135934,36.308507842746394,1.2945473,0.11225369,1.3251325,0.18114845,-0.1813605,-0.15233213,-1.6261414,0.8357155,0.15860663,1.0952466,-0.2830188,-0.3506701,0.94022506,-0.5045949,-0.5538903,-1.3841026,-1.9134814,-0.46932688,0.6817746,0.18771324,-0.7129249,0.3930454,-0.6463693,0.81764877,-0.048563614,2.3707924,-2.2651045,2.577385,-0.77179116,1.6094924,-0.32881021,-1.1641692,-1.0418051,-0.94684654,0.51492065,-0.34757802,-1.5472871,-0.025301516,-0.2973387,1.0483618,1.3428191,0.78205466,1.421228,-0.564439,-0.89043725,0.32556218,0.9720657,-0.5880367,0.11233193,0.23215501,1.1412559,-1.0015646,-1.0176206,0.118115865,-0.5681984,0.37761095,1.2129222,-0.62654155,-0.046303112,-0.19799341,1.4678465,-0.73372275,1.1908592,-1.0957994,-2.0154357,-2.4376767,-0.40450993,0.32074413,-0.6188182,-0.46832514,0.61072516,0.35485804,0.8543109,1.3946724,-0.53648627,-0.32250035,0.7180127,0.62643135,-1.7767015,1.4003406,0.5234236,-0.91718537,0.05441904,-0.6052361,0.20805211,-0.57597035,-0.32193565,-0.6249408,-0.62227,-1.240772,-1.4652692,0.5817788,-0.81826663,-1.4898145,0.3310999,1.3128175,-1.6769912,-0.47576067,-1.9178014,-0.38914767,-0.67423785,-1.4713353,-0.4485902,-0.07168667,0.73618925,0.549631,0.5666921,1.0648559,0.13156922,-2.073099,0.23241857,0.15802683,-0.37250477,-0.51998323,-0.5227354,-0.1960213,0.84082174,2.69339,0.0007504656,-0.5806118,-1.0523068,-0.21726735,0.21570301,0.07510988,-2.8872082,0.7916073,0.08360704,0.015915615
89e4ee86-3bc0-41e6-8d69-909ea45b9021,-19.906207178699745,-15.88346700550781,-0.48067877,0.804122,-0.42886642,0.041342106,-1.2265906,0.070762455,1.1778498,0.1941329,-0.09543499,1.1526561,0.71904254,-0.3076958,0.9136806,0.39373332,-2.733255,-1.6705492,-1.1186886,-0.19676486,0.19338188,-1.0415273,0.7025125,-0.675445,-0.102487974,0.91917074,0.018606102,-0.03323177,-1.1262532,-1.1462992,0.54883844,0.7573826,-0.36240268,0.27784097,-0.8034297,1.5257266,-0.7392034,2.6808803,-0.5187451,1.0647631,-1.378447,-1.6123668,-0.04840153,0.9424254,-0.4844416,-0.2665649,0.46844187,0.4565034,1.5628664,1.1288618,1.0380635,-0.6857708,-0.778295,-0.3901396,-2.57857,-0.21390894,0.45777273,0.9316922,0.5472469,0.37041542,-1.2653849,0.17124328,0.94688576,-0.09298166,-0.11495594,-0.52221894,-0.85485613,-1.3250015,-0.044423394,1.4042453,1.3440185,-0.036765177,0.4381234,0.1859793,0.48392832,1.8458171,1.0848844,-1.4693965,0.7567499,0.6832547,-0.30444694,-0.31364208,-1.9373786,-0.95461804,1.570978,-0.5299649,-1.0965261,0.5725257,0.8429531,-0.91827226,0.9049903,2.220916,0.85265833,-1.5816836,-1.0620114,-2.2152696,0.25764528,-1.0849744,0.55823797,0.4711591,-1.8274482,1.017558,0.8667718,0.58403,0.7313725,0.16861266,0.016614519,1.101616,0.64282155,-0.7882193,1.5068321,-1.0024544,-0.4254463,0.17340843,0.7200276,0.4414995,-0.14219385,-0.27472168,-1.5983465,-1.7753918,-0.5353985,0.010483162,-0.12139254,0.14063382,-0.9969455,1.8195938,1.7473052,0.5764709,-0.020577047,0.3667713
a8f2349e-0119-4426-8fd4-2ef70b9f9ac9,59.752279318160305,160.2900071630241,-0.096340016,-0.29198498,-0.9606771,-0.4653486,-0.07069766,-0.9312572,-0.324983,-2.7786334,0.8985736,0.21329904,-0.1431556,1.5329828,0.31066597,0.63062584,-1.1159979,0.40270862,0.8229562,0.026775675,0.97129,-0.91818595,-1.6979525,-0.17848118,1.2605978,0.039523024,-0.08696961,2.3079278,-0.37528017,0.40481478,-0.9097614,-0.027382962,-0.13333626,0.27619264,-0.8032403,0.54339045,-0.9235414,-1.090731,-1.0228086,-0.33445248,0.45695177,0.23049979,0.7183479,-0.8336094,0.88524336,0.7938169,-0.30638716,0.5055541,0.31304255,1.7775357,-1.3707573,-0.34380075,-2.4669974,-1.6097462,0.9140066,-0.40410787,2.0376544,-0.11911644,0.6389105,0.016650086,0.5982954,0.19610928,-1.1750573,-2.0859394,0.7530471,-0.023464581,-0.8036093,0.53980315,-1.1613138,1.9379772,-2.234848,0.2647871,1.2507043,0.1726904,-0.7364752,1.0068864,-0.11765766,0.10652187,0.08503338,0.41092154,-1.1164268,-1.0332187,0.33685157,1.0677066,-0.17583533,1.8406081,-0.38099465,1.3514059,-1.82805,1.1158401,-1.141101,-0.14108509,-1.6593544,0.26405445,-0.8295802,1.8266805,-1.4549956,-1.5125339,1.7135851,0.40075484,2.9852774,-1.1898578,0.22373176,0.7413835,0.44404867,-0.80266297,0.8650286,-0.5118583,-0.27303946,-0.9109655,-0.8574987,1.1032741,-0.93214756,0.51324606,-0.71761125,0.19878462,0.76734686,-1.6595433,-0.10196218,-0.40329412,-0.61350036,-0.26690778,-0.5822195,1.2361434,0.0806091,1.2138183,-0.98511285,-0.1277243,1.4766484,1.2912265
688cf0d2-6fa5-4edf-a5cb-a51ba08c0696,-18.865978227876028,-103.6506996139448,0.40952438,-0.41649854,0.21455893,-1.556506,-0.21279511,-0.26426646,0.23915927,-1.6458809,-0.6001927,0.105101086,0.4891224,1.2282989,0.498865,-0.24793269,1.054145,1.8685354,0.45413104,-0.28016967,-0.24640377,-1.0126112,0.13090722,1.7969943,1.8426543,1.205736,1.1316301,0.81195384,1.1086425,-0.66815513,-2.4378965,-1.6248596,0.45342916,0.5688932,-0.16810364,-0.1777153,-0.30193993,0.4596808,-0.9364588,1.305365,-0.06415598,-1.9607105,1.218207,1.0965327,-0.5758711,0.508721,2.1309755,-0.5195215,-0.55543965,0.627674,-0.19761394,-2.549941,0.47929636,0.51111925,0.25780702,-2.3493993,-0.59485054,2.6645498,0.6179757,1.4361588,-2.1692898,0.39399755,0.7837544,-0.26564342,0.22509305,-1.4846275,0.7828192,1.213802,0.65670633,-0.40118527,0.14065684,0.10372786,0.65334857,0.39340976,-1.34896,-0.0066837566,-1.6229727,0.9981801,0.4006721,-0.9237981,-0.07845587,1.1344135,-1.1823238,-0.246249,-1.2139374,-1.5596701,0.751316,1.199202,0.8288711,-0.7005526,-0.14118487,0.17934033,0.41400898,0.28148124,0.4416541,-1.013148,1.4111493,-0.35028732,-0.2787014,-0.52930903,1.0945549,2.7333515,-0.6376056,1.0199642,-1.7630643,0.6604046,-0.6564435,-1.1357061,0.8499644,-1.3310976,-1.1256222,-1.2609973,0.18313849,-1.0548346,1.580509,-1.0127146,-0.31240806,1.2011061,-0.117688835,-0.666037,1.0493785,1.1726443,-0.08534148,1.0383618,0.63777184,0.5122328,0.78354305,0.47964406,-0.38329867,-1.3311931
cd952f8b-6429-4c54-a5f7-0be05c1ea929,35.17402810592482,130.25820119556062,1.9431219,0.50555575,-1.8469388,-0.41261935,-1.9647108,0.94451857,-1.6945906,-0.99695086,-1.2300166,1.8892809,-0.010006553,-0.36939102,0.076507874,0.9354131,0.070670426,0.6232214,-0.683592,-0.0031995564,-2.196645,1.7795714,0.018557578,-1.6548619,1.4665643,0.11652722,-0.78957456,-0.36337003,-1.7983743,-0.0018772058,-0.32553384,-1.1974069,0.36093897,0.80815476,-0.36502773,-1.5785532,1.9193337,-0.08873898,-2.1424186,-0.7996062,1.7192656,2.5717494,0.23532778,-0.6910483,0.44214422,0.928478,0.3284706,-0.8765196,-0.08527238,-0.43894082,0.60772914,1.3626055,-0.52608913,-0.07644169,0.8826436,-0.0013598807,1.0235811,-0.97949344,-0.59907156,-1.2952563,1.2496423,0.87061805,-0.037226368,0.046477504,-0.15802875,2.9126105,1.3263699,0.017524127,-0.8493397,0.005038225,0.7237379,-0.9026083,0.69896466,-0.16378264,-1.6161462,1.673815,-0.8156585,0.76862687,-0.9789378,-1.624579,0.79475933,0.44801307,-1.0975782,1.0871077,-0.65378547,0.66519904,0.7792135,1.2444645,0.6386061,0.93713754,-0.32456216,-0.8591161,0.7418812,-0.75729054,-0.91791654,0.46380854,-0.4949188,-0.13071741,-0.31081465,-1.1419901,1.6233873,1.619177,-2.125768,-0.49902537,-0.06000439,0.7119099,0.15529852,-1.8276749,-1.2971302,0.87744474,-1.3789469,0.6646665,1.8607779,0.9201531,-0.6435302,0.13453797,0.40972224,0.042550385,0.84770364,0.39497665,0.5499065,-0.88089067,-2.3771448,1.3571975,0.07357148,1.1998267,-0.7367316,-1.0732411,3.6524327,0.03404969
c083899e-6086-425e-ab92-f9ed82c79750,-65.31805670912215,162.7530244044516,2.0806422,-1.0639132,-0.23245336,0.7164169,0.604335,0.7481818,-0.22034104,-0.015963487,0.4526195,1.7664685,0.71240526,0.0846319,0.29842144,-0.5128328,0.09114935,-1.0084091,-0.63183504,0.2061028,0.31369856,-0.5053721,-0.19575414,-0.34986755,1.5163642,0.9554534,0.5250038,-0.55264807,-0.72880447,-0.2468879,-1.1809118,0.1032019,-0.44946617,-0.761195,0.9293073,0.81475294,0.6750099,-1.0011314,1.369947,1.730246,0.6416259,-0.60052085,-0.882226,-0.62750417,-2.788981,-0.029179066,-1.0521175,0.26426148,0.011634692,-0.42090568,-1.002416,0.38445285,-0.13288067,1.1217382,0.6625628,-1.0324745,0.9914801,-1.2652489,0.39316612,-0.3701496,0.26951128,0.42501384,1.3155742,0.10106721,0.31110662,-1.3820491,0.04905327,0.09481041,-0.598802,-1.3783659,0.30263638,-2.2499895,-0.4438716,-0.056085333,2.1041398,1.0329865,0.5288713,-0.81678724,0.32595894,1.213427,1.2440655,0.5902309,-0.2724348,-0.44957498,-1.1774819,-0.8333286,-0.41637233,-0.028599283,-0.5081772,0.18257938,-0.8798214,-1.053148,0.47944003,0.18160714,2.4706395,-0.40508443,1.5438951,1.6165892,-0.93625724,-0.72874564,0.78241277,0.5720449,-1.1074626,-0.5337661,-1.51629,-3.4293962,1.1038061,1.1297349,0.67576635,1.2424624,-0.59669024,-0.057225835,-1.1694895,0.05944428,-0.5135177,1.2089747,-0.6021373,-1.0721917,-1.246056,0.8610836,-0.3325714,0.8028711,0.06256202,-0.9104154,0.50140625,1.5173213,2.8023548,-0.3706984,0.2902564,-0.93681854
4bc2fe73-987a-41b0-b53e-df7640e7f05f,-83.63138300357986,-21.767515832164207,0.14772718,0.6586204,1.1259788,-0.8665122,1.7576945,-0.6613604,0.6459569,-1.3052868,-0.7636496,0.7990328,-0.58654416,-2.389284,1.3378888,-0.7348641,-0.016825901,-1.1522026,0.5191405,-1.4133135,-0.85468924,-0.53373617,0.47031224,-1.0117706,1.0106722,1.9837633,-1.1577531,1.7003174,-0.20268163,-0.2206187,0.43838274,-0.5041567,-0.5773612,-0.7186454,-0.081739314,0.7270252,0.10957896,-0.27642968,0.7772634,-0.20951302,0.9412827,-0.16426004,0.14646657,-1.0332214,1.556927,-0.07314985,0.16114597,-0.9570549,-0.36120135,0.6509911,1.6098835,0.432276,-0.6111965,1.1923119,-0.62169576,1.7832423,-1.1268812,-0.45331705,-0.6202367,0.76794463,-0.14804463,1.0498506,0.79017484,0.27945063,0.113540776,0.5460843,0.543122,-1.3068814,0.9471507,1.0354081,0.25610176,-1.0145631,-0.43114063,-0.158079,-1.4360136,-0.6912005,-0.11814843,-0.2201166,0.7941106,-0.97475916,0.23267402,1.8390927,-0.57616687,1.1480463,0.07137009,-0.14294167,1.8577563,-0.8426429,-0.2061746,-0.29166168,1.3661522,0.024068637,0.016707065,-0.81995165,-0.52836937,1.6332392,-0.66689676,-0.5323112,-0.07301808,0.043073673,-1.7163782,-0.6506155,0.2391745,-0.4645214,-0.16075793,-0.5956518,0.6837201,-2.1780698,-0.921714,0.9877746,-0.102708876,-0.6085642,1.4513307,1.0277295,1.8429915,-0.8142257,-0.49803644,-0.9364701,0.19853346,-0.06656418,-0.0233747,0.86203796,1.7817467,-0.043300457,-1.0145031,0.2132033,-0.35683542,-0.67391336,-0.8029615,0.2523506
86b93f5e-8934-44ee-b25b-873fd485dbc8,-27.713845650086512,2.8187173071092673,-0.41644013,0.008513127,0.0105888145,0.16098778,0.70240545,0.27137998,-0.34962082,-0.847109,0.13007528,-0.7793508,1.4437634,0.6478344,-0.94908035,0.6139725,-0.22489688,-0.64236957,1.2066768,0.7177575,0.8497734,-1.1447209,1.0512394,-1.5096805,-0.6851832,-2.500853,0.47689143,-0.21956307,-0.23175927,1.0238798,0.40879455,0.28115106,0.00832724,-0.3485866,0.31944144,-0.9367051,0.008144522,0.6933834,0.5209298,1.358535,1.0647668,0.03785257,0.56675047,0.827403,0.58473307,-0.3681685,-0.07675966,1.5336432,-0.5056584,2.2275891,-0.38592845,-0.68080115,-0.75180334,1.7029518,0.32896748,-0.501078,-0.18744671,1.0795307,-0.009938051,-2.5009856,-0.99998546,-0.05484902,0.25897,-0.56930614,0.23560569,-0.082550086,-0.5665654,1.1437916,-0.1014247,-0.19754976,-0.26982224,-0.05260971,0.51434433,-1.2002281,1.4187416,0.8922467,0.61260617,0.1661489,0.9411097,1.350691,-1.2624131,0.22465807,1.052456,-0.54249316,-0.68547386,-1.6796206,-0.83372056,0.8513507,-0.60001415,-1.0818456,0.5913882,-1.974093,1.0683191,0.44523564,2.2895613,0.23461144,-1.0706052,0.6785361,1.3084836,1.8970283,-0.36489338,-1.8321086,1.1176881,2.5207586,-0.6060007,-0.9830483,-0.9362325,-0.45616478,-0.9954925,0.6066329,1.1447246,1.0826799,0.98946387,-0.47504517,0.10562949,0.43306747,0.93904984,1.4601209,1.1720202,-1.3430419,-1.6889733,0.71857023,1.8972054,-0.89092356,-0.53067863,-0.15915626,0.38451812,0.029261068,0.24662617,0.5872156
